encog,BasicNetwork,java,3.4.0,1,1752394463339
[BASIC]
[BASIC:PARAMS]
[BASIC:NETWORK]
beginTraining=0
connectionLimit=0
contextTargetOffset=0,0,0,0
contextTargetSize=0,0,0,0
endTraining=3
hasContext=f
inputCount=600
layerCounts=3,17,33,601
layerFeedCounts=3,16,32,600
layerContextCount=0,0,0,0
layerIndex=0,3,20,53
output=0.0000017824,0.083800517,0.956335461,0.9999998898,0,0.8596547481,0.0000002287,0.1179943546,0.000301411,0.3230570404,0.9999036221,0.1361349237,0.9978966613,0.9767226836,0.7816307267,0.004847696,0.0000792961,1,0,1,0,1,0.0013412018,0.8840246757,1,1,1,1,1,0.0095621959,0,0,1,0,0.9999999997,0.0000006734,1,0,0.999999996,0,1,0,0,0,0.0009972781,0.9999320957,0.0024694378,0,0,1,0,0.860292578,1,1,1,1,1,0,0,0,0,0,0,1,1,1,1,1,1,1,1,1,1,1,1,1,0,0,0,0,0,0,0,0,1,1,1,1,1,1,1,1,1,1,1,0,0,0,0,0,0,0,0,0,0,1,1,1,1,1,1,1,1,1,1,1,0,0,0,0,0,0,0,0,0,0,1,1,1,1,1,1,1,1,1,0,0,0,0,0,0,0,0,0,0,0,0,1,1,1,1,1,1,1,1,1,0,0,0,0,0,0,0,0,0,0,1,1,1,1,1,1,1,1,1,1,1,0,0,0,0,0,0,0,0,0,0,1,1,1,1,1,1,1,1,1,1,1,0,0,0,0,0,0,0,0,0,0,1,1,1,1,1,1,1,1,1,0,0,0,0,0,0,0,0,0,0,1,1,1,1,1,1,1,1,1,0,0,0,0,0,0,0,0,0,0,1,1,1,1,1,1,1,1,1,0,0,0,0,0,0,0,0,0,0,1,1,1,1,1,1,1,1,1,1,1,0,0,0,0,0,0,0,0,1,1,1,1,1,1,1,1,1,1,1,0,0,0,0,0,0,0,0,0,0,1,1,1,1,1,1,1,1,1,1,1,0,0,0,0,0,0,0,0,0,0,1,1,1,1,1,1,1,1,1,1,1,0,0,0,0,0,0,0,0,0,0,1,1,1,1,1,1,1,1,1,1,1,0,0,0,0,0,0,0,0,0,0,1,1,1,1,1,1,1,1,1,0,0,0,0,0,0,0,0,0,0,1,1,1,1,1,1,1,1,1,1,1,0,0,0,0,0,0,0,0,1,1,1,1,1,1,1,1,1,1,1,1,1,0,0,0,0,0,0,0,0,1,1,1,1,1,1,1,1,1,1,1,0,0,0,0,0,0,0,0,1,1,1,1,1,1,1,1,1,1,1,1,1,0,0,0,0,0,0,0,0,1,1,1,1,1,1,1,1,1,1,1,1,1,0,0,0,0,0,0,1,1,1,1,1,1,1,1,1,1,1,1,1,1,1,0,0,0,0,0,0,1,1,1,1,1,1,1,1,1,1,1,1,1,0,0,0,0,0,0,0,0,1,1,1,1,1,1,1,1,1,1,1,1,1,0,0,0,0,0,0,1,1,1,1,1,1,1,1,1,1,1,1,1,1,1,0,0,0,0,1,1,1,1,1,1,1,1,1,1,1,1,1,1,1,0,0,0,0,1,1,1,1,1,1,1,1,1,1,1,1,1,1,1,0,0,0,0,1,1,1,1,1,1,1,1,1,1,1,1,1,1,1,1,1,0,0,0,0,1,1,1,1,1,1,1,1,1,1,1,1,1,1,1,0,0,0,0,1,1,1,1,1,1,1,1,1,1
outputCount=3
weightIndex=0,51,579,19811
weights=##0
##double#19811
   0.4961834721,-0.5953260417,-0.8941623244,2.5681576699,-89.1904699754,-0.2939475116,0.7572449685,-1.1040031915,-0.6396361316,-1.1454654714,0.6809656455,-1.0208417266,0.9372109494,0.8285729247,-0.124473411,-0.0958395572,-0.0989411996,-1.026362227,2.8835865626,0.2943203575,-4.0063237233,-2.7498107378,0.9835402197,1.7646698939,-0.3875204384,-0.1893287066,0.1270411589,-1.1475587336,-0.2915091191,-0.9374961286,0.2216397504,-0.5733512819,-0.096869601,0.3486917819,-0.2030204574,-3.8418986013,0.9770144763,-1053.5509906003,2.3646889057,0.3721045264,-2.5055483229,0.2972581444,-0.9215377918,0.7850404893,0.3112253482,1.600262251,-1.0173051952,-0.846697711,-0.3890846967,-2055.8644701557,0.8643647605,2247.6506086822,0.8239561142,0.6097867483,0.9173873921,0.00833745,-0.4860712416,0.113082148,0.1142145451,0.6755413015,-0.5222010759,627.3771874918,1002.4213054499,0.3197171826,2.2885597968,15.5879715582,1234.5804913582,0.8488235931,-358.3913284238,4.5065244013,935.3972643274,-1.2753065711,183.6622957386,1.6994671192,10.4243001515,65.2244160174,-0.664928114,0.6196923704,0.1873651267,4.8037930408,-0.5826034677,1638.4515531908,-6.0416801566,0.355065794,-24.8339446675,-1.881349778,1.0447032173,0.7446994543,-0.2105469385,-0.4049293618,0.7829988449,-0.5651367656,0.9999999583,0.4912965535,-619.3166121649,-1353.6560185242,-0.5377239627,0.7390570536,-1190.8280068181,-1308.7410677488,-2.5688201965,-0.1641364821,-1.370537982,-0.609163015,-0.4584318015,-146.1700547844,-0.1861882521,-52.7959425298,-2153.5718821351,0.9709874978,7.8752943843,-0.0779230196,-5.0878674913,-0.8921320219,-705.2922401986,2.0873043925,-0.0014303459,-239.9704535753,0.4963244366,0.3342655491,-1.8757305761,0.9493333978,0.3740668603,0.5507682684,0.0062577427,-0.0188064354,-0.4256927123,-892.036393982,-2776.9766553702,0.0612430074,-3.2681072005,0.9598603079,-3.4495118116,0.1957008532,0.2075941944,-0.5829492878,-1.3066636365,0.8581147556,-256.3350403795,-2.8909771415,-11.3041083534,-0.6277067958,0.3161864005,0.0146638577,-5.4922584525,-3.4305816709,0.4836400473,-2965.5323635344,-1.7482741238,0.3291402114,2672.8801011742,-0.5214283608,1.7581374903,-0.5600988882,-1.0767257432,0.2835270304,-1.2544832093,-0.9809051829,-1.4203892598,-1.01745629,33.1437713303,224.4359465908,0.2407185094,3.359671591,-2.8507997048,0.4477886989,-0.0934873396,85.9092342478,-1.4226771491,0.35004287,-2.6887950942,20.4304551277,1.4046052776,4.0864647833,1.9934827609,-2.048899034,0.9511324672,1.6661313255,6.2319018739,-1.1787095336,2798.6174722414,1.19160293,-0.8047969658,-2674.5941405203,0.5514779479,-1.5572301805,-0.9580846455,-0.3592652961,0.4394953047,0.4989484261,-0.8654674142,0.5864559988,-0.6743762661,-502.9960444045,-3296.1686679931,-0.8236322475,-27.4803246352,-0.5901858185,-56.9997118376,-0.5744414565,4.7422744281,1.0113114391,-3.7586303028,0.5732775349,-425.2053098806,-4.3621437164,-18.6523987233,-2.1566202343,0.9330908371,-1.147873882,-0.4856144182,-4.3717225784,-0.4998336088,-3150.2523300292,-1.2996350502,-0.9141322855,-85.1302274833,-0.7746285018,1.3653050923,1.3885528334,-0.8293405631,0.5708260433,-0.9576508312,0.8958647402,-0.8160708151,0.5157196174,-441.808282449,-1003.0679642629,-0.0684945546,4.6343839638,-4.1396545979,-1522.8329838485,0.5580262382,20.9095591637,-2.2883142853,-356.0084676681,0.2524760258,-194.3889103676,-2.7289667005,-365.8378585382,-394.0583610745,-0.5092911368,-1.2240723039,1.5638628429,-1.3240611816,-0.184930078,-2754.9828175119,-0.4592825404,-0.257712758,778.2047478872,-1.0650568425,1.0500003161,1.8096628013,-0.8922908585,-0.7368893756,0.1941645941,0.4557975516,-0.1595295087,-0.7912976482,255.5428580554,392.3881777009,0.5487753319,226.6272731207,-1.116285574,-3.9079824179,0.2722420622,7.6063996962,-0.075247506,0.9830284872,0.3469965948,37.4485540576,1.6067183071,2.1339214071,0.504408785,-0.5320378188,0.0338911278,1.4307853754,1.8906101392,-0.8423960954,1699.4038786645,0.9083434936,0.4863096529,-72.4007476909,-0.3514968355,-2.2934057304,-0.0790229834,0.6474386829,1.0223585806,-0.4366971443,0.0296177421,0.3723596531,0.5057833358,-743.2739753024,-825.248507654,-0.5278056739,-0.25941094,-0.4451508276,-2.4129586992,-0.7075844602,-0.5278522151,2.3942914865,-1.7446004081,1.2320648883,-255.6324295145,-0.8292731825,-23.5928218765,0.7194146845,6.2401821354,-0.5885658028,-3.7267697134,-2.0284923275,-0.6922911304,-1474.4157016711,-0.280921608,0.7807836732,-20.2242365461,-0.0114450462,-0.542363056,-0.5191979848,0.6996738449,0.389858223,0.4208366621,-0.7795336715,0.4148207894,0.3441147251,-3.6274342006,-11.0438381866,0.4713705771,3.0971060236,1.4180596439,-0.5359518749,-0.824896764,64.6460264053,-0.8690777903,0.7217346754,0.811398842,-88.1132683722,-0.6617448974,4.839567017,-7.1686472881,-5.407757583,0.9799909492,0.4785807487,-0.8915642992,0.6491109845,-2248.1598918381,2.2312082649,-0.6888977254,-2383.9053182902,-0.31084716,-0.6327126808,-0.240119944,0.078087934,0.9250133633,0.9009218631,0.9180327156,0.478519667,-0.7652545878,-753.2794762426,-1979.5040476187,-0.5611834234,-2.2731034793,-0.3807532847,-3.7071189023,0.3699817339,0.1968023875,1.1875391049,-0.6615059574,1.4815751971,-243.1310239465,-3.0958324177,-18.1495628038,-0.1705151515,2.8406689543,-0.3852187209,-0.3737462927,-6.6300688037,0.0440766826,-1423.9864419152,-0.7487342885,-0.9436242307,2674.4501934101,1.1037049593,0.6921415069,-0.3998284617,-0.4374914631,0.7954912005,-0.2682722689,0.8168730263,0.5204421884,2.1851538193,627.7399795657,1002.8998101624,0.9569594258,0.7488871221,2.136518088,1236.9392453424,0.7133436208,-0.1427492587,0.4836388787,1.336583619,-1.006938739,198.0930266959,2.3886820633,1229.1582675892,1078.5382289471,-1.9069820123,-0.1212310655,-9.1524772628,5.5313443424,0.0713938366,-482.3151224967,-1.5275940913,0.3275899679,-12.6628081004,0.8761908023,-0.0386358431,-0.7579460174,0.795399017,0.695887331,-0.3577032623,-0.6350129612,-0.7998410847,-0.0810332448,-309.8366387448,-1003.0976654112,0.9019166408,-3.7454517619,0.7621514243,-1.9168438763,0.2524461902,-287.5949491751,1.7747316968,-1.4899075337,0.0266534194,-169.739704042,-1.8624527321,-9.4126997622,-0.0854695185,-0.6885544754,0.7116111551,0.3207350842,-0.4815397846,0.3781733018,-1345.5668845212,-2.0760558047,-0.2520756145,2095.228040305,0.6683356806,0.847489071,-0.1164994138,-0.6794567836,0.3391522989,0.8815103358,-0.3795767543,-0.7321060821,0.286323159,1071.3297319043,2337.6553971162,0.1373053707,-0.4029615361,-0.3768453764,355.4460506795,0.551338435,3.6385363695,-0.1097638869,1.5007742618,-4.1204848244,210.4028321738,3.2615883492,8.2922007072,1.6501807991,-0.6585079669,-0.0924990555,-2.2973224475,8.6759116197,-0.0811066852,1082.0026354764,-0.4079413807,-0.3158246069,2674.4536572865,0.8873471628,0.5501185782,0.3407068278,0.6713133262,-0.6955476731,-0.8595042437,-0.4027563566,-0.3402133987,0.7854733764,743.8067750733,1423.7899116794,-0.2289282649,10.3636094734,-5.9425028031,2.2997932641,0.6868753843,2.19792375,-1.7165078585,1.4156590672,0.703449805,255.743944614,3.639758113,19.5957370646,4.4010404311,-1.1713472328,-0.7171080757,2.8187865048,1.735217667,-0.8219194838,2788.5873703589,0.4070148932,-0.8742932107,63.4150179635,0.0354654113,0.5448829355,0.6863655856,-0.7752588987,0.9839625431,-0.2168658896,-0.3276153502,0.8870794288,0.455226581,202.5040783006,124.4799520474,-0.5522429302,1.4209597558,127.599073336,1801.6255264821,0.0478587434,-13.2367879226,-0.0729063045,16.2284033259,0.5604836202,123.8886758543,1.8254115394,17.1350035757,1966.2052198656,1.860209713,0.2419763433,0.7825173553,1.6158475256,0.094307408,627.9905879746,0.2254339588,-0.1078333605,2962.3410150712,-0.8862765239,2.0176590125,0.4628462905,-2.5339143477,-1.8793428389,-1.0365043221,-1.6727858712,-1.4697757049,-4.6638344673,2035.2809868856,176.2511284653,-1.3494278577,57.1785116686,-9.1004675124,-0.0187424138,-1.6637287981,29.8639847306,-5.9778947129,1.1934151188,-2.182750644,73.6504955661,2.4868336305,12.2616728877,2.7499276453,-13.626413536,0.6913292714,3.7233882228,5.471383529,-1.0088724031,1165.3526436936,-0.0026778203,-0.5243420037,0.2693499102,-0.2565260296,-1.0575126077,-1.5505202666,-0.8687772007,-0.1825700977,0.9964854486,0.5086100832,0.129687687,-0.7464411016,0.9241601475,-0.3186480887,0.2846542689,-0.7243522544,0.5571069112,-0.9279816919,-0.5175740603,0.3105490071,0.3748568998,-0.9565384289,-0.8068632341,0.4414401403,-0.3989722825,-2.7408707908,-1.4372966425,0.8318839028,-2.5601967509,-0.2030035548,0.6647963882,-0.9960638734,0.0803885144,0.5464813587,-0.4885184973,-0.6811556828,0.5745385038,0.4249118471,0.391750479,0.3010946458,0.1634972981,-0.410366806,0.7074594205,-0.5257956503,0.3152206337,0.2545069173,-0.4852324095,-1.3533323102,-16.3989782839,0.7799166554,-0.4873607123,0.5305336648,-0.0660186216,0.2235867539,0.1492614184,-0.024106137,-1.2025752894,0.410086922,0.1336269666,-0.5080614888,-0.1914934515,-0.5395720106,0.5975590693,-0.2404829666,-11.2987200129,-2.140011752,0.592091014,-10.8347610249,-0.7874734395,-0.0618078488,-0.974638539,-0.6097727936,0.6807740739,-0.0792466542,-0.6815477386,-0.9122482807,0.173905876,-0.1565738762,0.6846769423,-0.6730980764,0.4803885981,0.0541974875,0.6910221386,-0.6519865706,0.0605303692,-0.263826326,-1.5166312734,-15.4411824461,-0.3974129986,0.6228618705,-0.1029361254,-0.6053756052,-0.6212951978,0.6340174487,0.4338403394,-0.9293761323,0.8101686315,0.781608043,0.8209213421,0.3239187663,-0.3194956412,-0.6320379063,0.6321856778,0.5919501055,-1.0301421841,-1.5595462938,0.1565130339,-35.8568233228,-0.0830171644,-0.8724760941,0.6911826608,0.0591133782,0.3075344238,0.2997632912,-0.3025282271,-0.2374337926,0.1380917538,0.1811360407,-0.159955944,0.2958877975,0.2560143067,0.3557740648,-0.9591136626,0.6032935156,0.3589760807,-1.5674278218,-25.7984481407,-43.6476560606,-0.3020514356,0.6678009812,0.8091310312,0.4801128045,0.5246405592,-0.7380594262,0.7213866743,-0.2434210318,-0.1378794849,0.2387420826,0.4518995864,-0.7265000438,-1.0455943002,0.8242900553,0.1876047058,-0.2579269975,-7.3055765791,-14.4005208234,-0.6586926262,-99.2940561126,-3.5630876698,1.041981892,-0.4422061494,-0.3102245171,-0.5830091608,0.7033976446,-0.5506366937,0.0256769821,-0.7038168302,0.5748983443,-0.5550744358,-1.0842711297,0.5076202884,-0.2019603995,-0.9401584444,-0.177120433,-0.065109852,0.381792208,-34.9575238905,-27.5997977121,-0.3941669439,0.8129654307,-0.3099317937,-0.6046279968,-0.6910653668,-0.7062805682,0.1731661492,-0.8107793826,0.5873768457,-0.4941180175,-1.0916985022,-0.831880589,-0.4747544741,-0.5021478405,-0.4928163436,0.7123294723,0.6631350269,1.007903625,0.0654961058,-13.516535704,-2.4192210153,-0.1270384367,-0.4080831473,0.8968621721,0.3366757774,0.0110583088,0.8526786221,0.4571477035,-0.6437555221,-1.0502374721,-0.5897593668,-1.0993136482,0.6434786857,0.4515084694,-0.5368212956,0.368738123,-0.1564237327,-0.1010437971,-1.2639789516,-0.2391842797,-0.4384473189,-0.240956851,-1.4426930452,-0.7372101263,-0.0356180086,-0.1674826468,-0.3821311995,-0.8207389527,-0.014396535,-1.2312891598,-0.0773826945,-0.1576600851,0.4962985117,-0.4578106415,0.6675302006,-0.866090305,1.0063879016,-0.1193632156,-0.0192687524,-12.8778418507,-1.2663650995,-1.7171242762,0.1410504755,0.6869660691,-0.5869558112,-0.2585607745,0.6249375384,-0.4754150281,0.7078557291,-0.7745337474,-0.0710503805,0.2789207388,-0.4100781708,0.0373940392,0.872181789,-0.5416734851,-0.5754538639,-0.396944303,0.5427117084,0.3154971489,-0.5647495585,-1.4517250519,-0.832016427,-0.0918810036,0.1774864712,-0.8936400987,-0.3152397995,-1.1890709063,-0.2266750862,-3.6369716507,-1.705322605,0.7687337369,-0.3763291384,0.0672971477,0.4865894934,-0.7646758168,-0.5535970477,-0.2534280122,-0.6560290528,0.8248752051,-1.1461707105,-0.8951490953,-0.9934637772,0.8958956087,0.5787826966,0.0265263122,0.5310601555,-0.2916251584,-2.157202971,-2.7238669528,-0.1950835344,-1.5191907706,-0.1898269399,-0.0681867231,-0.0025097105,-0.1221886331,0.9574841795,0.0803746455,-0.0647423509,-0.6867483882,-0.1373936391,0.0714040501,-0.3464236057,0.1671776019,0.8351410357,-0.4849123313,-0.8538511864,0.091043637,-1.5609174061,0.7599349333,-1.7752175924,-5.8643740511,-0.3858986525,-1.0533235341,-0.3309655928,0.7200043385,0.4834571682,0.4548195958,0.1568415161,-0.5338755013,-0.2783519763,-4.9590105361,0.2257872775,0.4023072676,0.4810532699,0.986402107,0.3309076439,-0.1867082873,0.4167947035,-2.4149552655,-2.3354421981,0.3132420131,-0.8966283036,0.5196756075,0.0140209582,0.4620001948,0.7898970414,-0.164079842,-2.6865076058,-0.99112963,0.2090235153,0.4025119177,0.0073722152,-0.2233567562,-0.6606493297,0.7096814979,-0.1100611789,0.1102719854,0.286061734,-0.6215384229,0.0563941515,-0.4500458636,-0.2577088993,-0.7302014702,0.4028774246,0.4703018165,-0.1729711209,0.042089705,-0.7333908664,-12.3833537493,0.6027833707,-0.5060535068,-0.4992784416,-0.3681903021,0.5878686868,-0.1843258226,-0.6353668322,1.0395938989,-0.049984556,-0.7719166644,0.8504296138,-0.4806951342,0.3129673805,0.6358276606,-0.9934913906,0.2586847163,-2.2222171112,-1.4075082261,-3.2372233624,-0.3732628353,-0.1157263104,0.19897042,0.8669447539,0.3410697044,0.0460707721,-0.6347812772,0.4763668082,-0.6733982198,-0.458672432,-0.8782708932,-0.5004957434,0.7762453807,0.1290604809,-1.1025663676,0.2536963516,-0.674015206,-1.0351003074,-9.9489945573,-1.4342307943,-1.7262097662,0.8420150192,-0.5773698947,0.6878784072,-4.1983337121,-0.047457229,0.3828938201,0.5375597131,0.1490874183,-0.4661598811,-0.7244677595,0.5034946993,-0.7100937726,-0.903468429,-1.0571116893,0.6688306006,-0.78081536,-0.7281033951,-1.6697395193,0.0614872895,-0.9981151201,-0.2247221786,-0.1596734173,-0.5150236194,0.1856328554,-0.8586956592,-0.5621618152,-0.9461026705,-0.3358888849,0.6895391418,-0.8746250864,-0.5746379108,0.5041831995,-0.3842413231,0.21771861,-0.549094446,-0.5516437033,-0.7172076654,-0.9187591735,0.0660956837,0.5246902774,-0.2395171533,0.5032503754,0.2951301619,-0.8854352817,0.842078051,0.3331040702,0.7391908421,0.7528014447,-0.1333580362,0.2648001557,0.4999851388,0.6724928535,-0.1310609134,0.5776999999,-0.6659426757,-0.4352031543,-1.6810905385,-0.5741869408,0.5316429117,-1.5209496481,-0.5332098065,0.929923881,0.1036394293,0.5894846501,-0.1212619719,0.343592008,-0.2318373664,-0.4598112214,0.0789206005,-0.2725803904,0.4248565186,-0.923093967,-0.784571743,0.357857839,-0.7835740361,-0.136977718,-0.727524374,0.3971947954,-3.169523856,-1.7965712791,0.6020203695,-0.8857507325,-0.2896944519,0.6110663758,0.0146243733,0.8257905214,0.4940528866,0.702869211,0.9004619836,0.1311515896,-0.8634726497,0.0145682524,0.3185181532,-0.6541845831,-0.273650384,0.4858842026,-0.7066377763,-1.2920168147,-4.1030989531,-2.7670210248,0.0802653335,0.7210430035,0.7483490664,-5.6901265732,-0.5357844748,-0.482226486,-0.6684845306,0.0056524019,0.3701827117,-0.602475134,-0.5954817026,-0.265995744,-0.606817133,-0.2335285447,-0.8155950284,0.719204848,-0.0491370706,-1.1080602953,-0.4887865117,-0.4888331878,0.6148544144,-0.1332096308,-1.6665195644,0.0640858719,0.7797576237,-0.5675439236,-2.2144417469,-0.4446811244,0.4107409782,-0.4682079446,-0.6652287927,-0.9138471423,-0.7618689915,-1.0634220098,0.2635081051,-0.8806126399,-0.993238275,0.351013898,-0.7671826435,0.2876747423,-0.1287299722,0.0774481647,0.8898654352,-0.1860932895,-9.2558778943,-0.4991797009,0.7820421686,-0.4194319382,0.5244868038,0.1068713961,-0.2133992259,-0.3726709068,-0.7886641682,-0.1830275168,-1.0769876797,-0.0711575214,-1.1303136282,0.3048633274,-1.0928897475,-0.3163775322,0.3714756865,0.1309890165,-1.8233230883,-0.9870165356,0.0004674473,0.2882516323,0.5636787769,-0.0421724664,0.1817967427,0.0681662405,-0.5665820549,-1.0146128471,-1.0538607307,0.3049818032,-0.3078644231,-0.1975374624,-0.2265540226,-0.5149191274,0.3339157274,0.1003611788,-0.4648610446,-0.2954146662,-0.8578602228,0.7925614485,-0.6450857638,-0.6433041758,-0.0467450166,0.0734033368,0.8044438275,-0.3873689801,0.9373986771,0.6724785351,0.1430209242,0.5200317918,-0.2177471656,0.6145283078,-0.0090852679,-0.7501763318,-0.5910049935,-0.4763003245,-1.9007140707,0.0071642509,0.3927276854,0.6339762602,-0.9845340343,-0.6719666925,0.0777816198,-0.3750387863,-0.2914494642,-0.0170162279,0.8965549329,0.5606435055,-0.5343556802,0.0151804687,-0.8743137403,-0.8885920622,0.4133105669,0.0508488858,0.129398042,-0.7529591015,6.6760111008,-0.3299785069,0.7327859137,0.4161357595,-0.9566731323,-0.7816466032,-0.0654553757,-0.1731903384,-0.7013382822,-0.320639509,-0.2355680758,-0.0564348908,0.362888575,0.7855697413,0.0660835457,0.6570065542,-0.6129325839,-7.7573716147,-0.6031544646,1.3140191917,0.967077872,364.7748315969,16.2807265542,0.4957158745,0.1682563038,-0.0408839452,-0.20318572,-0.5882203744,-0.4093917321,0.0122157269,0.2391267782,-0.3361866662,-0.254936249,0.6721306251,0.44804054,0.2157102334,-0.0935697406,0.1432328906,-9.1718308835,-0.2343589807,7.4580694826,16.9574239291,-0.4556727571,-0.1380382051,0.4284456088,-0.9977795068,-0.241610361,-0.9818460646,-0.1980236671,0.5377913748,-0.4766366438,-0.468336635,-0.1182345586,0.2497026946,0.5299326172,-0.7720808039,-0.191290185,-0.6261360085,-0.918917888,-9.3076752324,-0.131433075,0.9350437709,0.8185412557,-0.7805800954,-0.9302206333,0.8751370766,0.0245398949,-0.4512335544,-0.1360766164,0.8644442587,-0.0128576012,0.9729414354,0.940938052,0.8191834,0.3344974306,-0.5177147491,-0.8104869677,0.9496665255,-1.0441942923,-0.442313218,15.760927913,-0.7262990037,-0.6770533507,0.1554200127,-0.5359083947,0.4178001872,-0.5391948802,0.6278461564,0.3566189468,-0.953604239,-0.5296505192,-0.9306049934,0.963107821,-0.8005241795,0.2111028717,0.5164517029,0.2429732498,-0.8580804607,-0.0071195086,-0.104379249,2.8678200012,-0.4067786827,0.9032113825,-0.1812406044,0.2742886653,0.158278671,-0.9297668594,-0.2430221675,-0.6068394088,-0.7906777181,0.4245789107,0.0838930275,-0.3310980141,0.3441340317,-0.565925705,0.8193706619,-0.8364148597,-0.6483446204,-2.8367882714,0.6760345289,14.543161936,0.6492596743,0.619754751,-0.7187033076,0.4785077657,-0.6675620778,-0.7622487977,0.562136327,-0.4920505269,0.8128123506,-0.9393500785,0.3551530334,0.8174118862,0.0403836556,-0.3418659868,0.8201626444,0.5618613586,0.6269088252,-0.142012357,-0.3357773704,12.5043929464,2.8337034284,0.5105271559,0.0964389599,0.0839514317,0.4310815038,-0.1034113396,-0.4318144786,-0.7540575532,0.9483022225,-0.9913163594,-0.6554312546,0.8055554436,-0.3578090628,0.3698733016,0.0513103071,-0.3446162458,-0.3593518417,0.9792116209,11.8113085665,9.3642361164,6.5085444578,0.4477636364,-0.619927893,0.5923033803,1.0356730239,0.229286347,0.3130324284,-0.2871796689,0.3194452454,-0.9494542045,0.4569556122,0.0872406715,0.2749333416,0.08995538,-0.2299605924,0.5457898218,1.2358984254,1.924132614,5.4027735464,39.5582598925,0.4507376766,0.4851082358,-0.6401447867,-0.6661871669,-0.8065641671,-0.7794354267,0.4794844795,0.5833923566,0.8388114877,-0.1626889404,0.1657417552,-0.749516578,0.4591813004,-0.2488663412,0.0314762158,-0.5823004567,0.8647501266,0.0307973786,6.2193564975,0.6912139715,0.7977193503,-0.7228996766,0.5006081969,0.0258228784,-0.5369504025,0.088052661,0.1277318851,-0.7116893481,-0.689093497,-0.9545857245,-0.7970279035,-0.3165944819,-0.3585519463,0.713297128,0.1271948516,-0.8940409824,1.0611036504,1.0025275389,0.3854947079,12.7945200006,0.7824825346,0.5375069772,0.6802611331,1.160789794,-0.708808146,0.6296703855,-0.6735428877,-0.6296054378,-0.5020100068,0.3828607223,0.3676833192,-0.9827266707,-0.8765861488,0.4488207608,-1.0138837323,0.9487148086,-0.8863750198,96.8920033429,-0.0236824273,0.4643191145,2.0090438313,0.9763620227,-0.5102645945,-0.698154182,0.1702838941,-0.171119582,-0.4544377049,0.5115055503,-0.0744749805,0.1933676587,-0.1346641098,0.2114175001,0.9092319856,0.8834035761,-0.9378629123,0.3654811153,0.1961785214,-0.2380780632,1.1168442994,19.3730423443,-0.3422535387,0.4034777798,0.0713526954,0.7708876395,-0.1534785262,-0.166036552,-0.3013387626,0.6691110578,0.7679768537,-0.9143567042,-0.5245337339,-0.9232674159,-0.1499837546,0.40518675,0.8396781271,0.7606812818,0.1910990769,1.4783523939,74.6900905967,2.6491363941,1.8421568728,-1.5071484374,0.6139105705,-0.7521920849,-0.8707264382,0.9485281593,0.7602668178,1.9600266328,0.4203473509,-0.8628029898,0.1603702108,0.4821896814,-0.6594177542,0.6710577326,-0.1254475808,-0.1639418767,-0.6312052176,-0.6392123974,2.1023120312,4.1730319013,-0.1723397668,4.4230602143,-0.8215587277,-0.7295903133,0.2270206086,-0.2539867806,0.7727943299,0.8626262841,0.4886656334,-0.7763714817,0.5590907795,-0.3016096366,0.2070549809,-0.7523257933,0.3508878499,-0.2282840561,0.794579121,-0.8327802949,2.4672157077,19.081170369,1.1645744235,1.0573815067,-0.5077333422,0.9651216445,-0.4355157037,-0.5714083592,0.5774615124,0.2102439792,0.0764786515,1.0706344767,-0.1717520303,-0.2188059566,0.056086751,0.2578115107,-0.330197111,-0.1709192142,0.5078431621,0.5266787034,0.668452787,4.7266814829,1.015970659,0.6271494799,2.303612138,0.5516122117,-0.4233571533,0.5550339304,-0.3747693316,0.0254528618,-0.9066497345,-0.6716901961,-0.5539987731,-0.6749011254,0.5668358093,-0.7763224165,-0.8323772186,-0.0598412496,0.1083879965,0.7725592503,-0.4703247104,0.8589362963,0.324135459,-0.1022589919,-0.6681773867,0.2264966553,0.2158372513,1.2003931756,0.014737665,0.428846324,-0.0952039797,0.5413749631,0.9149870581,-0.2226410251,0.814633337,-0.8037235738,0.2010434236,-0.8902640774,-0.3341487558,0.3108320361,0.9692603573,1.3314924829,0.3012990397,-0.6426541647,0.5263889244,14.3705859781,0.7103450596,-0.6120116372,1.0108110328,2.1951756452,2.2256653402,0.509999984,-0.41533791,-0.1399432346,-0.8987674199,0.7268385884,0.2380432517,0.1940881293,0.3656489949,-0.6354016934,-0.5474525516,0.6603138886,-0.6557634687,2.4781673407,0.3365105755,-0.2251594487,2.8237974961,1.4569572396,-0.0317010072,1.0394369483,0.4650864177,0.7836778124,0.6183362679,0.7347504232,0.1337452619,-0.8645842062,0.1845808691,-0.3763998667,-0.3631806713,-8.9895141867,0.3894240699,1.7536611117,1.2845986966,4.6435288487,0.3274345173,0.569850458,-0.2379362834,1.3166455237,1.2644442047,1.1296438777,1.0559723552,-0.5468984581,0.8481397838,-0.804828659,-0.5198574574,0.815021331,0.5865624799,-0.8873713681,-0.2527764293,0.3453755193,-0.0793905911,10.5768380651,0.3742078088,0.4638929974,1.2670970146,1.1287213235,1.4334141405,-0.21288593,2.0942080914,-0.1339406772,1.1399935812,0.9927690234,-0.1728424451,0.6475309497,-0.3611831447,0.0305536848,0.2112105335,0.9334708572,-0.6666275992,-0.5058418822,10.812529042,4.6347046015,-0.0209338427,-0.1798577131,0.8655451699,0.4125293794,0.6530593596,0.5867245403,1.0279810307,-0.0118426652,-0.0285523741,-0.3001399639,0.2100458732,0.5927442302,-0.5679730711,-0.8413093047,0.5385199457,0.1346247629,0.8681453825,-0.3447004357,0.6376631768,5.750104906,0.74525298,-0.6842341941,0.9097906864,0.6816683456,5.870738376,1.041198938,-0.1918514433,-0.3267531155,0.6866165772,-0.5826489799,0.6524930396,0.751555785,-0.3883989631,-0.0305466376,-0.1204303768,0.2959547767,0.8903396253,-0.5050929741,-0.8388606475,0.686997656,-0.967364636,-0.2988439771,1.1201007956,0.7668733934,0.4682885114,2.3998333963,7.8287674909,1.0394096013,0.1901681386,-0.2894205001,-0.4950656647,0.7202209456,0.5371716701,0.1552414813,0.4965657448,0.223723035,-0.0448807072,-1.0474911329,0.7823530402,0.078375252,0.7065922876,-0.8092548224,-0.9274916794,0.746612739,3.5381486613,3.8829927056,-0.5722711548,1.0030144196,-0.1234968334,0.5617185565,0.7292620495,0.6237886589,-0.2253525556,0.2624787711,-0.2562826046,-0.2997858985,-0.5803916848,0.0535905462,-0.8491410138,1.0599466429,0.1835450494,-0.4577465996,0.9016599078,0.0321756158,0.1813440055,-0.459136201,0.2261693784,0.5794476124,0.3594641639,0.8227429658,0.9184922382,0.1416436848,0.0863434047,-0.2722758319,-0.2664427535,0.5289487712,-0.4123804553,0.1158257431,0.0517000217,-0.5380646187,0.442338531,1.2253018492,0.8682254282,4.6577589906,1.1282124902,0.7526892122,0.6066401061,1.0779442209,1.0506186333,-0.0474593881,0.3103333565,-0.0418762182,-0.862424634,0.7663264866,0.1465316159,0.7908389158,-0.0098648408,-0.2062543202,-0.4060547605,0.4965099014,3.3327458381,0.5888248176,0.0810088206,0.9212557588,3.7576596001,1.190842229,0.3156394198,-0.3600634153,-0.1422332297,0.802419566,0.2030894286,0.9607805217,0.6559955016,0.6963104116,-0.1658454196,0.748877953,-0.5169381434,0.0822937896,0.170019509,0.2300342429,0.993795354,-0.4478064696,0.2795384616,0.9340006692,-0.9760586695,0.2588473189,-0.7458603715,-0.4769161386,-0.963182913,-0.2731253876,-0.0987992352,-0.4434752858,-0.7191866579,-0.9422588744,0.5369051379,-0.8675549967,0.4061949321,-0.175229123,-0.5668703982,-0.1716118265,0.5335368931,-0.2256442287,-0.8179172141,-0.9813125773,-0.1001552897,-0.9500992307,0.9827006424,0.9166989678,-0.9800174424,-0.5810165411,-0.91511594,0.1244556445,-0.6107564725,0.3274167779,0.4657355948,0.6230037232,0.9590406121,-0.7412377552,-1.0569159619,0.1563823473,0.0733639612,0.2274296882,0.5301792469,-0.2653712729,0.5290739066,-0.6907915078,-0.8440597913,-0.7493995071,0.2989079568,0.0806633057,-0.210756959,-0.1364626009,0.3907368302,0.1470713753,-0.259961356,-0.673758314,0.6901702212,-1.8047978324,-0.6005870585,2.1855841251,-1.0942219229,-0.2976530747,-0.6324067723,0.687848548,0.5714085538,0.5917575463,0.4423170117,0.468004472,0.67201938,-0.7724640041,-0.4893737013,-0.1547261786,0.6058430411,0.2054013623,0.6451133017,-0.7636251283,-0.5927377884,0.8567367078,-0.5665863647,-0.7648186486,-0.1442344456,-0.165407749,0.6794479381,0.4671245625,0.6217851415,0.2405089891,0.3026129057,-0.9578643366,-0.8423843563,-0.5415239816,-0.7266383752,-0.7961090341,-0.4862970409,-0.8416701737,0.8552892083,-0.4615609632,0.9854444647,0.5369278661,-0.149574823,0.5130172898,0.7118850234,0.6237831811,-0.2401503307,0.961916978,0.2486774479,0.0523231157,0.2953230735,-0.3232242214,0.8872524776,0.1716039117,0.5451293529,-0.0943145139,-0.6438913349,-0.1195497082,0.4733908281,-0.8241859955,0.9493164348,0.029053231,0.9853557935,0.0556615554,-1.4125391738,-0.2323988743,1.1196501912,0.8907052096,-0.0501521689,0.5441167567,-0.6118574363,-0.9998875976,-0.8382610111,0.0503787809,-0.5089618356,0.8475318655,-0.4670685164,0.209876391,-0.4834047355,-0.1977825032,0.2224748413,-0.700714852,0.2869675184,0.4284083781,-1.6298812965,-0.091991924,0.6869976705,0.8587520792,0.959444529,-0.7217715713,0.8491811149,-0.059603826,0.4315448602,-0.7019647823,0.1615920919,-0.8660196269,0.0403570149,0.9765215917,0.2951926952,-0.7161492431,-0.8734736346,0.5175786051,-0.558289195,-0.1028663507,-1.5867458827,-0.9430217858,-0.1543462909,-0.6409963774,0.0363049068,0.93442506,0.45797261,-0.7174509899,0.247078221,-0.2272451456,-0.5406530162,0.9033109429,0.4269245813,-0.6526320538,0.758887953,0.4024350688,-0.6782498788,0.84827928,1.115315985,0.3456298363,1.0305677115,1.0206449397,-0.899466835,-0.8571619998,-0.0847203715,-0.4808717316,-0.1274817788,0.3247381382,-0.6691829328,0.2854909014,0.0112194833,0.2064983372,-0.3344876045,-0.4031487724,-0.1807825044,-0.0979799727,-0.8696540382,0.443928571,0.4326454208,-0.7384691858,1.1453795445,0.8285544568,0.5508743311,-0.8028608634,-0.2944175289,0.4112519554,-0.1505963737,0.2380512975,0.1908015422,0.9206378254,0.9476622046,0.0063453446,0.2849400237,-0.5717595272,0.1739236981,-0.0759897038,-0.9739954859,0.5330705105,-0.150891404,0.5837245562,-0.1819873665,0.5718508471,-0.5305301913,-0.0353428265,-0.8294426012,-0.0567103147,0.2092590446,0.7350223843,-0.2987962517,-0.2214968426,0.4938630927,-0.3869421653,0.7918995454,-0.4747151239,0.0655041925,-0.9210752863,-0.5656060484,0.1063053145,0.381326529,-0.1474420579,6.2910627337,0.147761751,-2.5311304133,0.4350951614,-0.3367853742,-0.8708254497,0.5731206819,-0.4052325124,-0.9223181427,-0.235068101,-0.1211444687,-0.1585944263,0.9340155619,0.2105646148,-0.4954332353,-0.1338509326,0.2708736943,-0.5732311744,0.2148627588,0.6922753953,-0.0240267001,0.332301135
   -1.0003091776,0.6332566706,-0.8397640244,0.1781698343,-0.5962888682,-0.2695144352,-0.3380478955,-0.4136624418,0.3672604045,0.9872397044,0.5382545523,-0.7176735004,0.8291509353,-0.6223923377,0.9586089508,-0.1483101758,-0.1817920431,0.8462372256,1.2299185499,0.862801738,0.1926330951,-0.4093975508,0.8192155216,-0.3529279079,-0.1385129726,-0.6108745894,-0.7191114178,-0.5299816311,0.0324821546,-0.2063464103,0.9212523186,0.2815786419,0.9493064294,0.7733506715,0.2490458647,-0.749255041,0.6718329923,0.773284144,0.8436692109,0.8289676543,-0.7366826579,-1.021487911,0.901443125,0.166029164,0.8871904101,-0.7188819828,0.5299825874,0.1318569459,-0.7224630959,0.1618621405,0.368437381,-0.6992044788,-0.5370689086,-0.3440708007,0.2685563966,-0.0896314493,0.4905496342,0.834570797,0.5876494262,-0.6581409314,0.6681700463,-0.8106221352,0.0231679408,-0.6376206656,0.6242697118,-0.6511178679,0.0543408181,-0.8369607545,-0.8274512988,0.8259634355,-0.937167319,-0.4832292219,0.3413368721,0.6366987198,-0.4136977315,0.7840656387,-0.384864501,0.2191231622,-3.1734584727,-0.7034581526,0.780910816,1.1243636749,0.6146782436,0.6971603783,0.1164666489,-0.5996833795,0.5030264471,0.2253913598,-0.6393876473,-0.4503199175,-0.7319636669,-0.6719103141,0.4284640972,0.6171048996,0.4281485831,0.2277004731,-1.0274723318,-1.5049276311,0.7467400957,0.7239066806,0.4126824035,0.3655981741,-0.3898126352,0.7870541583,0.1536563296,0.1206446827,-0.1591810516,0.905788249,-0.4086631107,-0.551989268,0.6405183357,-0.0580122813,0.7409096486,0.6907727431,-0.4611896796,-0.7263762395,-0.9927151934,0.2231618988,-0.4552218198,0.0731883642,-0.7429424517,-0.5061759401,-0.1613080067,0.8682549284,0.9582822325,0.1372312734,-0.5707215664,0.502189084,-0.2119236422,0.4697753191,0.0810091926,0.3629701251,0.4488356737,0.2990916263,-0.1221921387,0.4699287816,0.6642991865,0.7357318129,0.9319967608,0.3157722462,-0.3930492182,-0.5347386491,-0.4756689088,-0.5284549323,-0.24440623,0.8588903476,0.3387206503,-0.7626401015,0.0705178956,0.2204247888,0.0096316918,0.1138134683,0.8598837367,0.2885322662,-0.0196697142,-0.6748421564,0.0742713465,-0.3391543101,-1.0828695546,0.0375387321,0.9473786357,0.1836493294,0.4655297481,1.0091987044,-0.0392484841,1.0311135942,1.1370065622,-0.7495998916,0.3020243613,-0.3234134122,-0.6352120422,0.6000922654,-0.8906081449,-0.1059486096,-0.3491980015,0.7997590363,-1.1202099163,-0.9035182149,0.5811443617,0.6068335147,0.1015685885,-0.4343458879,0.0298574455,0.3133211005,0.570804135,-0.2882096418,0.4706998017,0.1908910474,0.3342795036,-0.073015223,0.3292689477,-0.2432390214,-0.1880737044,0.7364338197,-0.178775758,0.2017952398,-0.5591497079,0.5595381507,0.5562318275,-0.1022095205,-0.3568780971,-0.129688908,0.3359109884,-0.0053045383,-0.5384259155,0.2566636216,1.0315374001,-0.162327176,-0.6949933036,-0.853610498,-0.5408257455,-0.7036578831,-0.5082960149,0.4980957855,0.6868902566,-0.2234218446,-0.4600824721,-1.1666410882,0.0149943381,-0.8360869779,0.4916416951,0.8197229216,1.091801485,-0.8070073267,-0.1651264468,0.4400898763,0.3976413454,-0.7097377076,0.1986628792,-0.3768272329,0.3421177743,-0.3357703514,0.542735492,-0.9559491017,0.8338397536,0.6196037941,-0.7625866753,-0.3111265499,0.0579249912,0.5486428766,0.5660717984,-0.8364528207,0.1785672189,1.1163214028,0.5293512536,1.1070061474,-0.0923715427,-0.0182138895,0.5376961764,-0.8532255828,0.1043370867,-0.2676317984,0.9481878842,0.8966833472,-0.7793029004,0.115819236,0.9429918293,0.5602230721,-0.9908620988,2.219266817,-0.0156534242,0.4106459649,-0.9570514415,0.4186105326,-0.4716910763,-0.101060859,-0.5642995939,-0.2441875572,-0.5748251715,0.2539313897,-0.9418799992,0.7895718013,-0.5198536418,-0.8439567906,-0.9283281107,-0.0012874031,0.4709615529,0.4074970883,-0.7489670097,0.0616590187,1.0002911761,-0.128170672,-0.9577811522,0.7829423343,0.1247597098,-0.1701230373,0.0689376354,0.8935806356,-0.5521061883,-0.8889042843,-0.1757355099,0.8974962918,-0.0283352524,-0.0605368229,0.7958008813,0.7804136056,-0.2883806559,-0.3517730609,-1.1433438749,2.9801056348,-1.0071365923,0.3210979557,-0.6132358792,0.4133715208,0.9335744156,-0.0491794494,-0.7044306996,0.9377667337,0.1275127457,-0.291879864,0.1742236261,-0.2895457933,-0.2074148691,0.2841842801,-0.361162523,-0.465500601,0.0123929617,-0.385060938,-0.5738332876,-0.8853362884,0.947491849,-0.0035178637,-0.6057487665,-0.8049394338,0.6788016209,-0.1606150227,0.9117564771,-0.3734061431,-0.3241028239,0.6734488313,-0.5689086351,0.6024618814,0.8697217914,0.4336973202,-0.6377240053,0.1311709278,-0.5110708334,-0.7300776002,-0.6239015513,-0.1184486271,0.4811948973,-0.6411098416,-0.5642803234,-0.6153710102,0.7441166402,-0.6242290879,-0.7724267234,0.470789789,0.1405121222,-0.8900675405,0.8484247378,-0.0253373951,0.1938494774,0.6272098922,-0.4949678837,0.5636612957,0.8223053369,-0.4255148324,1.014929678,1.2135126276,0.7160828457,-1.0875998044,0.4743139923,0.0451284258,0.7967935781,0.5156673819,0.7783083269,-0.034838234,0.2260340205,0.827776316,-0.9007933561,-0.6219195978,-0.7056232236,0.9145060714,-0.7237207681,0.1693199795,-0.5422594305,0.5086977386,-0.2427426276,0.3043066866,-0.6944841081,-0.1369305561,0.6822594344,-0.3311352632,0.686887437,0.9211575164,-0.5660592453,0.2489845929,0.383974361,-0.43243738,-0.8165904532,0.3415918963,-0.0656161978,-0.1340866822,-0.9935584207,0.5992505779,-0.0734244499,0.9479988076,0.6286816105,-0.332753428,-0.104981763,-0.0045783734,-0.8327789917,0.3036551984,-0.7233976314,0.7922374169,1.0887722515,1.0837637704,0.4727830612,0.978168483,0.2299951841,-0.0341011921,0.1616352718,0.3855210139,0.0264405169,0.5086986897,-0.5084742968,-0.305186167,1.0746196293,0.9051293005,0.3106133119,0.8800837617,-0.4399040973,0.2082114934,-0.5927605645,0.4183343924,-0.119077741,-0.8508364399,-0.3789777491,0.7138450569,-0.0638392128,0.6498562127,-0.5075463173,-0.9654677381,-0.2467071671,-0.2592945724,-0.4742915869,0.9826894787,3.3042458549,-0.6208915378,1.2243558266,-1.2400196572,0.5340737304,-0.2223434238,-0.1934551054,0.7676705332,0.3879209319,0.8389627925,0.8400345116,0.6957263114,0.6464980419,-0.6436954514,-0.6769223591,0.4797385964,0.3369118614,0.364541992,0.4381953598,0.8589478278,0.0402870465,-5.1601563885,0.7978818947,0.7108190781,0.9702285948,-0.0110777888,0.6086619626,-0.7121824218,0.3204069131,-0.1560819538,0.6942890343,-0.9356232895,0.273444294,-0.6890019268,0.5472475476,0.4486893845,-0.4145066469,0.2311263402,0.6282161865,0.7561812676,0.4996868062,-5.4020923439,-0.0160993079,1.9125179341,-0.4138826726,-0.7530040964,0.673470392,0.5974290632,-0.483758096,-0.279115706,-0.4566866662,0.1829190456,-0.5000192389,-0.8606032223,-0.2689068971,0.3848925084,-0.3752835693,-0.9321123054,-0.9035896575,1.0114203215,0.8644794618,-1.1138549349,0.2539933052,0.3871700607,-0.4244700903,0.5072715669,0.4442252082,0.6325393827,-0.7361110935,-0.8683366331,0.7249123041,0.6508055284,-0.2933278428,0.1523970245,-0.1988247939,0.136689446,-0.5140846035,0.7104935718,0.694274354,1.2104553574,1.0487070761,-6.2655039001,0.5357768127,-0.9688064693,-0.8074771579,-0.5181182358,-0.2924656273,-0.3714591775,0.1483906879,-0.1250641122,0.2014300898,-0.891027265,-0.4027958751,-0.5504840895,-0.7558992254,0.3694181548,-0.1361114408,-0.8729540468,0.4311329299,0.7648166424,-2.2871659684,0.5726155844,1.3910497833,-0.7314831548,-0.4072638935,-0.9985813114,-0.3031428049,0.1701689431,0.858657062,0.1950327064,-0.671769024,0.1173822375,-0.3605070262,-0.918831379,0.7200323653,-0.5509533318,0.2804252399,0.346514497,-0.2806895673,0.5655769876,1.1895093261,-4.0172077037,-0.9503652952,0.1215871841,-0.1737097572,0.3023567308,-0.5553866609,0.0148760834,-0.3487748166,-0.5719904944,0.5964374361,-0.9224854915,0.4268932789,-0.7353004032,-0.6110885908,0.8825590479,0.7735065064,0.432236277,0.5563511065,0.8942786161,0.4724822882,-0.2022593189,-0.0195336055,-1.2237175202,-1.2144354799,-0.6448568682,0.2100501322,-0.7575743083,0.6977476174,0.6164681076,-0.8772755342,0.5406687116,-0.879610639,-0.5959703593,0.0822053004,-0.6968552782,-0.2132196508,-0.6012678199,-0.3172814902,-0.1944593188,5.3351302019,-1.9744941832,1.4604979135,-1.8093488147,-0.7691234232,-0.4078331258,0.1336834691,-0.5432073382,-0.0486754387,-0.7313599908,0.1689958829,-0.6528708518,-0.7396987543,0.8146459184,-0.6314781531,-0.5764882491,-0.3206593684,-0.8643721998,0.2092672104,1.6016930779,-0.6941804478,-0.1119199082,0.4312085571,-0.6235595069,0.3931971043,0.9055634514,0.0157875116,-0.991561731,-0.0484820181,0.8888504439,0.1751417493,-0.1981040829,0.8813831323,0.5456108473,-0.0634497089,-0.7253584387,-0.2642666201,-0.4974054116,0.2587334646,-0.1961672775,-0.8468744904,-0.4450656143,0.758007428,-0.6787586756,-0.8802270398,1.0270696522,-0.3799742587,-0.4326451217,-0.401104232,-0.9924003857,-0.3190882415,-0.6943296602,-0.6642323747,0.5141299457,-0.2375089394,0.1226389018,-0.1374944431,0.8027856786,-0.9137356581,-0.9597158962,-0.6905433501,-5.1300601325,0.9269586611,0.1094572621,0.5193828685,0.6328403346,0.387967294,-0.628213008,0.1293418476,0.5693241419,0.778259765,0.8044687945,-0.5266306011,-0.9742273137,-0.5486128113,0.2198736088,-0.8456311745,0.7322421844,-0.6043634134,0.581086883,0.8191717868,-0.3100125878,-0.16269715,0.4488721791,0.0691893937,0.4037897015,0.5257363494,0.1792600663,-0.0639232124,-0.1825457539,0.4325926062,0.6720780165,-0.5104310395,-0.3885086555,0.8541592659,-0.233318604,-0.6745211167,0.2285677502,-0.6618438441,-0.0430339803,-0.9913126793,-0.6670172585,0.5518322198,1.2445008561,1.4252955487,0.878306614,-0.0194623646,-0.6780309501,0.6219299233,-0.3399857099,0.8725208458,0.7692358949,-0.617705408,0.4083327219,0.8614530709,-0.5764442277,0.8849223507,-0.019824094,-0.9056338246,-0.4536139824,0.8207758537,-0.2841827357,0.0932350865,-0.2932959878,-0.2327878479,-0.8387309659,-0.5818176282,-0.1086960617,0.5592699842,0.6472882053,0.1493230042,0.9869349205,0.286875125,0.0500653261,0.0027172771,0.6439344678,0.7488411353,0.5936362574,0.8296039533,-0.7390031467,0.2356281186,0.0431050339,-0.5500816237,-0.4081414263,-0.2571628729,0.4558091407,-0.3522557924,0.9054179354,-0.730979964,-0.0690717898,0.1149655268,-0.7706457116,0.0743270502,0.8807907853,0.5688814545,0.486110351,-0.8835267081,-0.9074501383,-0.8846596443,-1.0192841471,0.5183601463,0.713256072,0.4490886793,-0.782951771,1.0078509143,0.1835683735,1.0486906372,0.9031730145,-0.1482358068,0.1347907856,-0.1036801206,-0.1671721281,-0.2150930015,-0.4240239986,-0.2185820796,-0.1519095327,0.298025742,0.3541173353,0.3273139027,0.3492120274,0.3873962262,0.4267773389,-0.4312179102,-0.8542201639,-0.7845398221,-0.2646658083,0.971783768,-0.2405621612,0.0967598548,-0.4334233418,-0.145897695,0.9152284482,0.2427635663,0.3346362474,-0.4701221216,0.57760316,-0.0278521608,-0.5954951106,-0.8534071342,-0.9347663572,0.2048698558,0.8478368865,0.4614096576,-0.8131900123,0.5457604552,0.4565011907,-0.2118846121,0.3486760061,-0.5840323715,0.4311376251,-0.0415810337,-0.2342003876,0.3678650972,-0.0575939345,0.4452054286,-0.8169257176,-0.3220761765,0.8630268625,0.0623193072,0.66389113,-0.2764254232,0.2974213593,-1.0108252116,-0.3912792949,-0.3669285582,0.8619924299,-0.5836215664,-0.2526592344,0.2237900784,-0.7244004751,-0.8772681182,-0.407680802,1.0041316389,-0.6637020281,-0.6709230805,0.2442641306,-0.4732407902,-0.5094405605,0.3242149817,-0.2973322198,-0.9428336429,-0.3212373629,-0.6846822777,0.9485268059,0.3387383928,0.1220030781,0.1860434812,0.2353035137,0.9379233116,1.0772057355,-0.4579856727,-0.6662991256,-0.1527110793,-0.9745524376,-0.2721550495,0.8366371186,0.6945496314,-0.1425867667,0.0590607671,0.095609367,-0.1911048832,0.7263263504,0.8208462723,0.1700822498,0.5210759661,0.9646128503,0.390838664,-1.0130643715,-0.705912328,1.0301474946,-0.6769415589,-0.0974751686,-0.7582510484,-0.4269737553,0.6431798891,-0.8319351716,0.5856880598,-0.2158600533,0.7447870926,0.5258648339,-0.9292742765,-0.6767158782,0.100022227,0.4297665025,-0.2248988157,-0.3520834691,0.129466288,-0.7368197786,0.6239834642,0.3948523104,-0.6876778932,0.5320458941,-0.2255747332,-0.5299294524,-0.0563209897,0.1021220599,-0.0346525085,0.1038807711,0.3540193334,0.0105779143,1.6611175185,-0.7840641567,0.6863388203,0.108748014,-0.9677588069,-0.4978313206,0.7405226913,-0.1660412259,0.6070591655,-0.0124188001,-0.5868213549,-0.6981197871,-0.0047141759,-0.524394359,0.4590007421,0.9520308042,0.0846067208,0.4375932787,1.1600908437,-0.0334775832,0.7946264239,-1.1168755089,-0.8134105176,-0.5197009619,-0.6985388211,0.4349843057,0.5785663085,-0.7558843997,0.6448796691,0.8230167362,0.7363346557,-0.2063186541,0.6888421185,0.1507300608,-0.8749613848,0.9418705228,0.1798922531,0.9201294446,0.6774760459,0.176702887,-0.2778489092,-0.1937329101,0.5928337256,0.8890086809,0.9228891264,-0.2359184561,0.8608306846,0.5571659805,-0.7046426253,-0.748764322,0.2430596308,0.2023929288,-0.8309097238,-0.273482004,0.2344844367,0.5455355631,-0.6630717778,0.700965691,-0.1799699806,0.4354602215,-1.0257435506,0.4416358866,0.724595806,-0.3531287361,-0.0535246369,0.0378047225,-0.2326124461,-0.9927425551,0.3977098246,0.9224256318,0.1963272533,0.0600716534,0.4667914052,-0.6266950432,-0.7755204389,-0.5256119385,1.0813787089,-0.6719268917,-0.0780623764,-0.1519800241,0.7299750758,0.3089417776,0.8008248284,2.8348276717,-0.365111451,-0.3069570512,-0.1724247002,0.4658968514,-0.9950903528,-0.4540955048,0.5434976289,-0.7318253708,1.1173692375,-0.1803837955,-0.7771576119,-0.4348992157,0.6975402199,-0.2890572971,-0.6827922732,0.3434996685,0.7736484878,-0.2073154363,0.0915395373,-0.7798164327,-0.8726425539,0.8435787228,0.1835061227,0.6278572801,-0.7739741982,-0.3671237338,-0.7283882963,0.7437463343,0.7053753827,0.3190187612,0.8808149204,-0.8154735633,-0.517608493,0.3425220748,-0.0021491903,0.2913396704,0.0912776093,-0.5772245454,0.5467876942,-0.6178946317,-0.0381482594,0.1453422239,-0.503586877,0.0929721596,-0.7933518546,0.6382220204,0.3458350163,-0.3118595334,-0.220382689,0.7780264793,-0.7190595399,-0.126640753,0.1507979389,-0.6452585295,-0.6622614132,0.1902600601,0.0467130756,-0.3764812379,5.009873184,0.5411489522,0.3208975924,0.3545207091,0.8361142603,0.3821687352,0.667808284,0.7049302154,-0.392343539,1.1275681298,-0.25974488,-0.5688649909,-0.7615661528,-0.1161519049,1.0193758794,-0.5966918664,-0.1076408353,-0.0638706502,-0.2799919371,6.5812276485,4.3516309635,-0.4216910593,0.161406623,0.3587670131,-0.4011401797,-0.8242528102,0.5947469504,-0.3155806817,0.0929726372,-0.8335850858,0.0786374595,-0.2332554,0.8379193699,-0.8496976392,0.418562017,-0.4118565113,1.0974944882,-0.655850976,4.3755439815,-0.337502893,4.6583565766,-0.8431361686,-0.706477411,-0.500933451,-0.3862532987,0.0904645503,0.7976278167,-0.1105156725,-0.6385783467,0.7699064399,0.5042042752,-0.4026842847,0.2040738276,0.5306879731,-0.613623599,0.0786889315,-0.6620953955,0.9029564209,-0.0629951559,11.6882421212,79.6033599698,0.1684475221,-0.6851551879,0.0171066247,-0.3250005778,-0.1953050391,0.5182630741,1.0927609214,-0.4979140778,-0.1422292234,0.6154714334,-0.0394361438,0.7587687237,0.0266772543,-0.027648671,0.9892696455,0.3590552036,0.1249594347,-0.2907641725,10.9131648476,328.0875210426,0.5797228987,-0.376072373,-0.5960333871,0.9619846151,-0.9247322316,0.0034444749,0.5700685455,0.0105171821,0.059939144,1.0759518482,0.1874114289,1.1134100233,0.083314377,-0.272812211,-0.4944446495,-0.1817855852,-0.2397137956,-1.1184403082,19.6454689157,-1.0305668154,0.2656931656,0.5843803976,1.0080343982,0.7500487376,0.6253186361,0.560287416,-0.3181858663,0.696009281,-0.1770101292,0.9757126748,-0.337654508,0.6686489032,-0.1382398894,-0.1070740445,0.8497423412,-0.794131744,-1.1030067263,0.1775856388,-0.5805928692,37.2903529285,1.1411814378,1.1172411093,0.9529438881,-0.1461864147,0.2920377595,0.7796109422,1.049797403,0.8057403354,-0.0752150159,0.3246577609,0.5479469957,-0.7561928584,-0.2277574501,0.2335358742,1.0497992279,-0.372428693,-0.6378106356,10.7090596745,0.9065398623,-0.1887390766,1.0861482181,-0.0955296676,0.2656511852,0.595144825,-0.2664676244,0.4083111859,0.3367621503,0.7677882586,-0.4131983124,0.8713505133,0.2694967628,0.652583806,0.0909084876,-0.3532405875,0.8076104924,-0.1017188217,-0.0886073332,-2.2113229792,-0.2591764058,0.0917138307,-0.1519832381,1.7615789355,-0.5215293806,-0.491047719,-0.2890024445,-0.4141620319,-0.0363963589,0.6442327792,0.6022113401,-0.1408377336,-0.6128905942,0.5277269452,-0.4420021052,-0.095645889,-0.2024855115,0.8281021444,0.0440367241,-0.1369496881,-1.478399034,-0.9275689074,0.7270547332,0.7254614138,0.4911800777,0.0972320462,-0.5909943377,0.2192291317,0.3205177093,-0.7154845079,-1.0084139134,-0.6147023373,-0.8219764494,-0.4840960648,-0.6548993654,-0.4316928701,-0.5535723399,0.217168379,0.0666850501,0.642214659,-0.3020852628,0.5753329945,0.601328959,0.3357222536,0.022064895,0.6640007413,-0.720537097,-0.7926800715,-0.1472173861,-0.7942240398,-0.6534629651,-0.0827747492,-0.3138802757,0.6126679513,-0.3270280024,0.6764797414,-0.4427127696,0.9331849555,0.2531288657,0.6152091727,7.2429238454,-0.1068714149,-0.6639812551,-0.2734865447,0.1936821014,0.9648417951,0.3768156602,0.506032558,-0.1055353025,-0.5732003071,-0.1620125913,0.1745401534,0.2925260868,-0.6394434914,0.5839531536,-0.2538586217,0.3116754833,0.6280094831,-0.7605323614,0.6674388082,0.8774192331,12.052880492,0.448004965,-4.6269480609,-0.3166279302,0.6371499078,-1.0822645846,-0.6680669648,-0.183368009,0.6802640083,0.8377624514,-0.0223458708,-0.599397221,-0.4382980374,0.2869416589,0.5034230341,0.6356381995,0.5560509443,-0.756854784,0.4150555264,1.5795338529,0.384502374,0.3309540764,0.73374785,0.3523997199,-0.2538629622,0.0347386352,0.4772140752,-1.0822527303,-0.9342279958,0.2122383879,-0.8122807477,0.2631404137,0.9698192733,0.6979122712,-0.6624490249,-0.2526895154,1.0056230882,0.0075127634,0.2258507011,2.567997287,21.2952589966,0.2220231069,-0.0020439824,-0.2489729059,0.8026636296,-0.7868566174,-1.0013718218,-0.4714343622,-1.0480360684,0.3052214982,0.3625134832,0.9396604044,-0.071822972,0.2044870665,0.3115347209,0.7288994992,1.0533762889,-0.6857131621,0.2472156282,0.5993106133,0.7431193315,-0.1229916013,-0.4146156891,-0.4829119793,0.6393528347,0.6656488265,-0.0018864266,-0.8195535537,-1.0756104862,-1.0176833443,0.0068748398,0.6984977217,0.8857734191,-0.1056199792,-0.7096358273,-0.4271486064,1.0710201572,0.9976439083,1.0053402472,0.7696380983,22.3179492997,0.4177127571,1.028904035,0.1150739989,0.3171276652,0.3803617065,0.2381383376,0.4494893957,-0.4282948865,0.1812887488,-0.4344239323,-0.4513692138,0.1198144471,0.3894403091,0.7953136422,0.0648327119,-0.6022418632,-0.8470154077,0.3876220795,2.1782169768,246.4072875764,0.5475189675,-0.4009277917,-0.1151386397,-0.1409911608,0.2050601505,-1.184215026,-0.6846703636,0.0879605006,-0.3587768125,-0.9335682814,-0.3401864977,-0.7354295179,0.6591505238,1.0142594593,0.7120723566,-0.5762079614,-0.7609960286,0.6381453714,217.0277067156,425.3222443034,0.7325934816,-0.3429681381,0.1761962428,-0.8340878558,-0.0015956063,-0.6865581062,-0.3781705937,0.6500094004,-0.6541520682,0.7943609195,-0.526210376,-0.3404371319,-0.2987840589,-0.6485180044,-0.205306468,0.6598388904,-0.719664091,1.1339083217,80.5892340984,144.1491074235,-0.6262397528,-0.4879559369,0.3020467704,-0.6451372045,0.6037484228,0.395984649,-1.3214605252,-0.731239673,-0.4270862994,-1.027298139,-0.907217402,-0.4007322685,-0.1144980768,0.1446064093,-0.107877328,0.3204218721,0.2288642629,0.465940519,27.1185936304,1.8553225494,0.1567645078,1.0067738967,-0.0030599966,0.2055163233,0.0448848136,-1.0618280441,-0.9363669035,0.222794887,0.2439584382,-1.0854692576,-0.7632344631,-0.1856573267,-0.3626128593,0.1128310094,-0.7290750709,-0.5362027718,1.1160843724,0.5838372546,0.0947677416,9.5762676798,-1.1027453512,-0.0731632391,-0.8542092691,0.3051184215,-0.7923991256,0.2273037039,-0.7928005703,0.7374927186,-0.0678299865,-0.3128500989,-0.8086611218,-0.5811311115,-0.6969548409,0.806381514,-0.7144061483,0.9660113063,0.2344214968,-0.0627603971,0.4988553718,14.5299439314,0.9689993245,0.3820596888,-0.7245412103,-0.5599251073,0.8341835483,-0.67625602,-0.1045977336,0.2551606609,-0.806543805,-0.1360849473,0.6534772413,-0.0582287613,0.6901180807,-0.8342147564,0.8109542609,0.7056747929,0.4900164311,-0.3153539056,1.1265954496,6.5743484231,0.597600421,0.7540633796,0.6468669745,-0.1066647494,-1.0007607875,-0.0476476591,-0.1266691785,0.1239631464,0.0397984463,0.7000275919,0.8786033852,-0.8579307344,0.5447666687,0.6319437132,-0.1012612708,0.3414342128,-0.0348048046,0.8309665137,0.3907820219,2.6671971862,-0.2198520376,-0.2190464663,0.272069296,-0.0150439241,-0.9762142575,-0.2572746641,-0.0511513751,-0.2121959426,-0.4451862267,0.5582714386,0.521439971,0.8458266494,0.4239630103,0.8222382894,0.0713864502,-0.6377414954,0.2733865303,0.2404946022,0.6585340958,-0.6107427581,-0.4206994396,-1.1947219017,0.1153001423,-0.5115273389,-0.0007827589,0.728267332,-0.0965949652,-0.7380061546,-0.7372120117,0.3137894129,0.0662806724,0.0368350742,-0.2324905945,0.7590257632,-0.2851161408,-0.270517645,-0.1387588932,-0.5379895114,0.4574385042,-0.0114408032,-0.098673268,-0.5347435695,1.7848128996,0.2093921456,0.1620894415,-0.8384323504,-0.7480061864,0.6338169365,1.0200410936,-0.2435829187,0.7030266041,-0.2521411622,-0.7395447819,-0.0533414789,-0.5352131355,0.0758825249,0.4707446773,0.4034196632,0.4453904295,-1.0099623021,-0.6737587534,15.4856636993,-0.6356619843,0.0011852172,0.3009658788,0.9169714333,0.5629480425,0.6795509435,0.3079303698,0.6415175814,0.5920625184,0.8652766192,0.418209543,0.4689581564,-0.1582848156,0.9276173471,0.0757606693,1.0122004142,0.1064315694,-0.3288754774,-0.0253094703,0.2177754185,-0.8150025765,-0.8510409966,-0.146815079,-0.7852368139,-0.5984281766,-0.6566526697,0.8340984129,0.6535776039,-0.606704263,0.4818065908,0.9588781244,-0.6752625598,0.2001161867,0.0967132083,0.6885957236,-0.8212655962,-0.9446457109,-0.19099285,2.1234333669,0.204406749,0.0376857144,0.7693106141,-0.6191721181,-0.3318998863,0.9088639339,-0.1636262943,-0.7305255547,0.150984488,-0.4967340269,0.0584282965,-0.2756167254,-0.6963234179,0.3423213852,-0.5585595891,-0.7021657651,-0.5190828501,-0.2988524899,-0.1115877013,1.6049028247,0.6434148565,0.453705931,0.3152121454,0.8140108693,-0.4712700799,-0.1509525192,0.3350972898,-0.233238579,0.5778082778,-0.7025216208,0.4490502772,-0.2358740861,0.8457810784,1.1049842286,1.0881830741,-0.5569630022,-0.3563924835,-0.2651997959,0.5905056101,0.6755940711,0.2827066195,0.3204530331,-0.051479755,-0.4188578261,0.3989998063,0.256050183,0.3843259772,0.3289373486,1.1393482234,-0.3234569406,-0.3883940455,-0.3815270674,-0.0425622926,-0.4866218495,0.7041805348,-0.8215081252,1.0631369835,5.4879524645,-0.0549377788,11.7580203718,2.2616733889,0.0766128654,-0.4157770376,1.0846431921,-0.6803851539,-0.1744867007,0.5677378906,0.074431565,0.7430018327,-0.4915991767,0.5044000498,1.0538751047,-0.400934055,-0.6621241426,0.8596648959,0.8412389443,-0.4923008016,-0.4022887269,1.1588901211,26.9171760145,-0.4123121119,0.3431225267,-0.5177626421,-0.5194041587,1.6523699612,-0.2714584443,0.05206496,0.9719318274,0.201585438,-0.6410684555,1.0273610646,-0.3518965593,0.3421613892,-0.479796539,0.8494186756,0.0151793322,-0.0123938099,0.3181601461,3.5355650051,38.7796971989,-0.2558068142,0.3980626184,-0.6990258089,0.3613731601,-0.6170826085,0.5454393458,-0.0382506385,-0.3460526124,-0.4159770245,1.0880909854,0.8840708365,0.5877037318,0.3539120477,0.2916599856,0.2834391912,0.8677493211,0.3647550115,0.2737924648,6.0079649035,-1.2612167911,-0.3422271978,-0.3098929889,0.4292978553,-0.6483892272,-0.2637230294,10.1148176608,1.9554974988,0.8319707808,-0.7336105819,-0.7799518012,0.4436102337,0.8774457321,0.2268602896,-0.1702502085,-0.7847213874,0.3161035531,0.390801504,0.5287940806,-0.2978757963,36.5385529089,-0.9903758985,1.5547327286,0.3415833794,1.5259248702,0.6293814849,-0.1728324848,-0.1073511143,0.3910187933,1.0041965923,0.1336651048,0.7532853033,0.4638704852,0.570193696,0.6277987504,0.838861084,-0.2278511528,-0.1538425986,0.1616632813,-0.6504104137,-0.6543282592,-0.8912490108,2.0729509623,2.4326665049,1.2653779893,-0.0866950867,0.9709870879,-0.0077954573,0.7104927096,-0.1008277187,0.6292574665,-0.5830711706,0.6915513431,0.9677209007,-0.7416581361,-0.7966607273,-0.3208897961,-0.9638770907,0.1214142986,-1.4717780261,2.2436195591,-0.155259605,2.6513313366,0.3721304082,-0.3370243205,-0.5091020698,0.3838054539,-0.7074597002,-0.4033012525,1.9979432089,-0.1419335628,-0.294612906,-0.5756408456,-0.4446314249,0.6105340385,-0.2639305198,1.0090480144,0.3245675526,-0.9428199549,0.9231570309,-0.6025085195,-0.5316325021,-0.4489604896,-0.329842589,1.2732925455,0.9194562229,0.1789067316,-0.4061722361,0.6740956178,0.702349812,1.1150027255,-0.5343413421,0.0708208535,0.3598388633,0.3917415654,0.3143472522,0.718008104,0.5664321747,-0.3901614258,-0.3928671138,1.1997609608,0.1580259977,1.3706233158,0.1690449432,1.0438558303,-0.4697858283,-0.5596746681,0.7317615749,0.4084712339,0.0848257853,0.5835529738,0.0936611348,0.4252239847,-0.2932967342,-0.0496012741,-0.7874121649,-0.2049033344,0.4859571541,0.7941315921,2.6272449248,-0.1986250444,-0.1059228431,-0.3646365571,-0.2409631221,0.7417499312,0.3850363765,0.4560663455,0.0744248326,0.8765384155,0.0439437386,1.0034577853,0.2565305743,0.1508607505,0.0886313503,0.8774312364,-0.5901254937,-0.322809464,0.190464012,0.2295363354,4.4035805879,36.6795934572,1.1011836374,-0.0832327905,-0.0336363321,-0.3507805406,0.0928626699,-0.8498271006,0.1690506453,0.0283158971,-0.1828876431,0.1146360253,0.7931140776,0.7041288334,0.6646773869,-0.3965073186,0.3064595666,-0.8502620111,0.0730030585,7.135952954,22.7588890798,1.0680418992,-0.3692178247,-1.0181254552,-0.7887924409,0.1445094928,-0.5571564161,0.5184461656,-0.4149478214,0.6655443904,0.6795301316,-0.7353479678,-0.2441930817,1.0294419979,0.010792245,-0.6172367382,0.611291354,0.1845034378,1.2159001932,0.9715673852,18.8442535564,63.4000410437,-0.05429629,0.4960466347,-0.7833885892,4.7986011005,-0.3544612513,0.6448073211,-0.3470836783,0.3631613444,-0.5722583488,0.3550088721,0.8768327399,-0.0095918937,0.2241660059,0.324521094,0.2142184185,-0.4617064657,0.9573306733,2.6519630241,1.983429097,1.834287715,3.7039010507,1.1423865752,1.1546074341,-0.8482454321,2.3011174196,0.3927951395,-0.4130250061,0.22367992,-0.617279511,0.1354460067,-0.3848038592,-0.1529234292,0.7107527672,0.0750702551,0.5684117672,-0.1036254374,0.6522576333,0.5213574555,2.5144661655,10.6056034787,1.7039834741,1.3287817845,0.5734969293,0.3211362651,0.3323051433,-1.0615390254,-0.7692216523,0.1979688555,0.3698250523,-0.7826332222,0.743570531,0.8636477065,0.5809357757,0.7833189431,-0.1312172726,0.7092783178,-0.060944751,2.6648159996,2.7215466889,95.0355914466,2.9774223347,1.0131307425,0.0888109751,1.1574321342,0.476242992,-0.3153345444,-0.059716593,-0.8911967193,0.5299485991,-0.358645953,0.3838799268,0.6028413394,0.4833755996,0.7813572335,0.1686336208,-0.415958643,-0.7242223587,-0.029686715,75.9802397278,143.3624852816,4.2488982263,1.2243376122,-0.3026984243,-0.4544147751,0.1634689216,0.2165289536,0.8322361648,-0.3427055935,0.109029624,-0.4520621325,-0.1226098604,-0.09233838,0.6056226469,-0.4386147993,-0.7831970043,0.3939764776,0.3133134172,7.1368407947,28.6857587422,427.0372177337,4.8574757217,0.2584283814,-0.1373546764,2.8616361222,0.4608582567,-0.4413648967,-0.4359127988,-0.1266285502,0.5300255932,0.7454463445,-0.996180619,0.1744302372,1.0609515011,-0.4342598556,-0.7736788589,0.962911801,0.6430308081,5.8452861549,9.1245330485,4.1389823951,0.1475551826,-0.1019158787,4.2870593059,0.7658809241,-0.2059612496,0.4379277276
   7.4368822699,-0.6468960636,-1.1768338379,-0.0072654561,0.1455289487,0.4324533224,0.6649073844,0.8551512186,-0.6320424532,-0.543539325,-0.4109265693,-0.1212365014,0.5005712226,7.0898506226,-0.2267834358,-0.5369407069,0.5542046551,1.1688425236,0.9453537469,4.008809587,-0.6968934683,-0.6920323621,0.1354147618,-0.1382643335,0.0129310186,-0.9436802218,-0.1673220006,0.2875797605,1.04185802,0.2902902724,0.7500453862,0.7495582016,0.7405042248,38.0615091317,3.8902184859,-0.3818321369,2.0169655415,-0.4038573105,-0.7325539395,0.5004340787,-0.5266516098,-0.2932001539,-0.8958653136,-0.3936984593,0.8132607985,-0.247394622,0.9723384378,-0.5521764256,0.8493505191,1.0437161102,-0.7882808807,0.7480267225,0.3996330408,6.6535040466,1.161433905,12.1289766889,0.4570772662,-0.2856817556,1.0837925037,-0.2395423106,-0.6220378988,-0.53438377,0.6827050697,-0.2539062553,0.8655497334,-0.3598468109,0.3201922217,-0.0490563423,-0.2388706937,0.1347855213,1.0965048676,0.5736804606,27.6201437069,1.273106756,101.087275252,-0.0070025057,0.9266689404,1.1057157612,0.4544832238,-0.3438064885,0.3005805391,-0.0918110231,0.9512895251,0.4124645526,0.4542628087,-0.7971047029,-0.7996212292,0.6189968475,0.687295016,-0.4851982991,0.0408349876,-0.0527156981,-0.4456043585,-0.1511309497,0.3175920664,0.488908162,0.8770757247,-0.276469638,0.6606995562,-0.0861759183,1.0261851769,0.5327139291,-0.3689908631,0.0902093031,0.5527473635,1.3829912084,0.3269163733,0.164033966,0.4686088055,1.1103245615,-0.2436325356,0.0059701649,0.3596666488,0.181142806,-0.8547061275,14.8132653148,-0.4828069925,0.5792495566,-0.1938665313,-0.1186889672,-0.277649116,-0.4669383519,-0.3567837682,0.3515246829,0.4902809721,-0.2090275927,1.4740362106,0.8804426736,1.0868195284,1.0358175644,0.1967375194,-0.0313075477,-0.178122502,-0.7904926007,0.1794563913,0.8676567205,0.6672504024,-0.3786989069,-0.2812401332,1.1768785552,-0.366752212,-0.1276009719,0.9710536141,-0.313352075,0.221055382,-0.1929742735,-0.4487871184,0.347910224,1.0291058843,0.6406751104,1.0539179561,-0.0344803797,-0.5349540155,0.5738367096,3.3069798136,1.2073174789,0.5913593045,-0.7563784674,0.6865112988,-0.2621234181,-0.0237489755,0.0475548589,1.3124811914,-0.0371802679,0.2726242451,-0.2021558664,0.3602886924,0.2275862319,-0.0055574599,0.6122018504,0.4292758535,0.4146542494,0.5210336876,0.6962108215,0.9577560994,-0.0985870995,-0.6305126491,0.4764336749,0.2509808582,0.9242697948,0.0247830436,0.0978535986,-0.3662258972,0.2762879789,0.4728385744,0.4343536025,-0.1577406479,1.4240355369,0.7473246948,1.2036278989,0.9584439453,0.7460682964,0.279596826,0.6509535353,1.5417587433,-0.1934123477,0.5412457103,-0.3201060217,-0.3715433416,-0.3040549123,1.4007971425,0.5292898331,-0.2962251962,0.4157953016,1.2050522645,-0.1642613688,1.1952370192,-0.4735287441,-0.3151805442,0.9704968519,-0.4138242458,1.0381885364,0.2170672719,-0.0890916807,16.0004719133,1.0809307727,1.0006249261,-0.1441128904,1.2749489464,1.0098988585,1.4993572402,1.1364168538,1.1850900662,0.7528537066,0.4630590449,0.7566416283,1.0321890093,0.0875654166,1.0598363104,1.0681109977,1.1023108544,-0.3994652516,2.0637478359,0.658924471,11.4366842667,-0.2099134285,0.6384823824,0.6963815871,1.916927051,1.4365223985,0.1735881218,-0.4188967208,0.445223762,1.1423372162,0.2426591138,0.5614151063,0.5354124966,0.3166603282,0.685981237,-0.5494925433,0.929136964,-0.2455450385,-0.4757305359,12.5930551394,28.6333927775,-0.0473670355,-0.6103514078,1.1236312488,1.4092813663,0.2488089185,0.3046309824,0.404724404,1.1254383176,0.3841088199,0.5085434513,0.4873221855,0.2364949022,-0.0256382954,0.0899504544,0.9640094343,-0.4427918662,-0.208595042,1.0143944505,-0.0239075071,5.7743925056,0.1269820989,1.0882417676,1.4184479351,0.3300452405,0.4842551657,1.4678395943,-0.1959364938,-0.0464132149,0.8897173453,0.4869205727,-0.403298472,0.3213569545,-0.2657204542,0.7777040428,0.5640588401,0.1410716992,-0.3297441239,1.0649601134,18.2936838917,0.3506917529,0.287164913,0.3602028011,0.7002592776,1.1782102333,1.1889552177,-0.3278795477,-0.2752505257,-0.3371408516,0.612128111,1.1408656209,0.1094218325,1.2966774234,0.9702081725,1.0626073646,1.2180609481,0.6109879163,0.8052084393,0.4971795294,0.9033485035,12.5908789199,-0.207428195,-0.4447373807,1.3687566331,1.0895483368,1.6561295769,1.0873223075,-0.2966457941,0.2469902837,-0.6100789847,1.0307672345,-0.5063420922,-0.3514583942,1.0566972909,-0.3672702666,1.2405182547,1.3886234937,-0.067772069,1.7354803444,0.2006707473,-0.8762982241,0.0622349478,0.7043882491,0.4394274557,1.870967386,1.0155703861,1.4691736177,1.680810062,-0.0312873258,-0.4034893811,0.624783703,0.021996187,-0.5047563807,0.2500128065,1.0267162205,-0.2768130525,0.2387277092,-0.9479198711,-0.7179281639,-0.4500215998,1.2506635717,-0.7568081462,0.6984721362,1.0164131913,1.8498930353,0.3107888453,0.2883542729,1.094793901,1.098442019,-0.0672739238,0.5727840065,-0.8108139882,0.3230636266,1.0283952502,0.1103478355,-0.1222033009,1.0811239758,-1.0444329637,0.3567039766,1.1635374869,-0.1482387164,-0.0623136019,-0.7038867705,0.1842717834,-0.0084319181,0.0193173043,-0.7890619536,-0.2064490246,0.4054791342,-0.2149092517,-0.1204805695,-0.0718187407,-0.5546724169,-0.4940461283,-0.5283591103,0.2067871223,0.2918987516,0.9497920625,-0.5033645118,-0.3919726927,1.3233164571,1.0385768704,-0.0879279875,0.9599697876,-0.2439805084,0.1999204726,-0.0710676838,-0.6144254587,-0.7294245145,0.7143932356,-0.5055533865,-0.5162088492,-0.6896387466,0.3401809945,1.1245953949,-0.4157699363,0.4391722206,0.673700386,0.0237653296,5.8217382326,7.2457509087,0.3372668745,0.8906742534,0.9315342819,-0.7323010962,1.0298479746,0.6013119648,0.6904861313,-0.2267443159,-0.6855909445,0.6125772052,0.5709990286,-0.8182156438,0.0700369412,1.1754052463,0.9523640661,0.1510701363,0.9166402727,-0.1075608558,0.1354221978,5.1469125697,-0.1117871399,5.2453958855,-0.8485968689,-0.3934676227,0.0084916843,0.2412220014,0.7110365443,0.8881791341,-0.4461605319,0.2999130282,0.1835138607,0.235770758,0.8296757284,-0.4038924172,0.8824521378,-0.372662692,-0.2086097569,1.0927670712,-0.273287714,-0.0781281358,3.8582502175,-0.3330035168,-0.0147342443,1.0981264384,0.2656424343,0.2442970554,-0.3265178681,-0.6197361099,-0.7967442066,0.2513093567,-0.367775162,-0.8555983606,0.0764241906,1.3184611643,1.0319246062,1.0747932962,-0.545359599,1.0057689271,1.2039906051,0.2029319142,0.0643505843,0.9431912744,-0.4493172859,2.2516483645,0.7265800633,-0.3083942127,0.7142199679,-0.6140813119,-1.0669892097,0.4014684434,-0.9888141825,-0.6394930767,0.3914322659,0.8910450996,0.0131156642,0.7616760984,0.9877741772,-0.0286776916,0.5613891247,1.2375082884,0.2265399874,1.8599983927,2.9425541753,1.0108066532,1.5549757855,-0.1384702169,0.5680221308,0.6538914784,-0.9507656028,0.1086200435,-0.6013803022,-0.2320524525,1.0023436767,0.595461008,-0.2354287842,0.0547294336,0.4928729275,1.1496704983,0.1174835846,0.8659166615,-0.4671687127,-0.5381732114,-0.0302029818,0.1387495873,0.8562056732,1.0590924006,0.1441082622,0.3423486281,-0.687948803,-0.2798936443,-0.2490021015,0.9622951977,1.0809972331,0.4600046113,0.1243951583,0.7467403416,0.333631541,-0.3047211285,1.3345691782,0.3726525547,-0.2590178419,1.1034939569,2.4389469802,-0.0209171156,-0.216238023,1.1804569571,-0.0033827436,-0.774304278,-0.1937037513,-0.6037306628,-1.9000465843,-0.1241962901,1.0517984579,0.195697769,-0.4805973619,0.8787596276,0.7567461952,0.9527671014,0.8917587834,0.4985569012,0.152092939,-0.3002684013,1.3477091061,1.1528681494,1.2436793791,0.5354993434,-0.0716491126,0.5549159044,0.5190808585,0.3042704503,0.2400604425,-0.3704135829,-0.4387048087,0.3534764717,0.3133544009,0.530274695,-0.1842201746,1.3906700696,0.8155028584,1.5584395564,-0.1893621717,-0.0752427041,0.7597509519,0.1908904724,0.4507696124,-0.580009295,-0.3408008574,-0.3715911246,0.4413569862,-1.4493963233,-0.1129055548,0.6445311964,0.6720176204,0.6759603726,-0.291241754,1.1043045669,-0.0287570308,0.2444473825,0.3825935485,0.0895443408,-0.3205596588,-0.689847606,0.2727479064,-0.4979561047,0.6405069174,0.3107633573,0.2950263298,-0.1409492037,-0.9119751733,0.3780977218,-0.286364738,0.7112173193,-0.5498133961,0.4599047337,1.19575122,-0.5292962712,1.3919631784,0.7834512346,0.7451257893,0.6609546475,-2.5105345512,0.9951212171,-0.1556002536,0.3808104438,-0.644043182,0.9214550634,-0.7338043831,0.530958262,0.0377432007,-0.2005936463,-0.5190232509,0.8922848255,0.0530760148,1.1974797323,0.2372260095,1.3177338074,0.7089548706,0.1147792519,1.1574081445,0.9852352807,0.552627016,0.9477115831,-0.1061176067,-0.6704958781,0.5388728433,0.7791314764,0.7851410282,0.9793800205,0.9519812084,-0.8002529129,0.4374838142,-0.120578067,1.223363569,-0.1082693119,0.6720503785,-0.1728161516,0.498838185,-0.3136870016,0.0881770742,0.3097512457,-0.8461855279,-0.1969581812,0.5658032257,-0.715764619,-0.2807212032,-0.1414933815,-0.1431457573,0.2097369914,0.5053419834,0.8184380496,-0.1456068367,0.4978670336,0.3413556918,0.5590232382,1.3261204995,-0.5069154316,-0.2556157907,-0.2405872404,1.5146262669,1.4482194847,0.109986966,-0.5144733557,0.8333986093,-0.7082711302,-0.3684969921,0.0502433645,0.2900849037,-0.2482390988,0.1770167496,0.8541108303,0.7889869078,0.8003848376,0.8711673093,0.7094603219,-0.1112740877,-0.5786894061,0.0693922395,0.1419616583,0.8581678501,1.0577700258,0.1664044226,-0.0463039506,-0.7165063482,-0.3309625889,-0.0817107378,0.8916839525,-0.0478953144,0.9800144076,0.4717645541,2.2528242181,-0.0543369625,-0.1262260959,-0.3367951761,-0.2896847815,1.0692915849,0.4834743375,0.2342024605,0.604155278,0.0606614992,-0.7391742278,-0.8001748321,0.1496583234,6.1615885835,-0.048246872,-0.6254338743,0.9916806656,0.9713024208,0.0799725665,1.809684255,1.2637432251,0.103465096,0.5991639581,0.6253786713,0.3214858213,0.0892863295,0.4147383475,0.8310880195,0.8307470626,1.0013306968,-0.184176221,0.2791498537,2.2918655248,0.4631479213,0.0592876432,0.3056378703,0.153123072,-0.7683878781,-0.2574133699,-0.171049077,1.1510190048,-0.544366759,1.0800524143,-0.1200079492,0.3203893919,0.2349748288,0.1234015289,-0.0637151215,0.4840045238,-0.3451553706,-0.6196335557,26.4199144666,0.9382606248,0.8064249006,-0.4160196959,-0.7579205059,1.0203234409,0.6138725059,-0.5057316307,1.5599360023,0.2030408256,1.2646399722,-0.4544419259,0.4285213357,0.6856952566,0.8028829702,-0.0190299436,-0.6711533098,-0.6343055348,0.9371831766,-0.0140705534,18.655797541,1.0738395953,1.113863124,0.4818218457,-0.1494440968,1.0665297429,-0.2383073908,1.167335692,1.2214487265,-0.3573629362,0.9927781138,0.4684894176,0.9597743974,-0.5801174912,-0.3503518786,0.3388441697,-0.0042749952,-0.4613670995,-0.8177487082,-0.0290616008,14.5407546018,0.3997584423,-0.8725598554,0.2057481217,0.1546226882,-0.1892604859,0.8555392774,-0.3035715762,0.6529196264,1.3222831374,0.7905717146,0.0766165883,0.3337078545,-0.8083140567,-0.8043695883,1.1191325346,1.071015309,0.1801846871,-0.4810572022,6.7479585649,14.9452220694,-0.173559333,0.5885093272,0.757874126,-0.1364788616,0.9751160399,-0.5855539469,0.7367306587,-0.1837722345,0.7141918913,0.6086920675,0.025070956,1.1141788374,-0.6149617367,0.5526347605,0.881058885,1.0616154684,2.8045228181,5.5068382151,0.5380654089,99.1158382194,33.2768638956,-0.3055042509,-0.2120888889,0.4353098624,0.2969477667,1.1741172015,0.6514554817,0.9309416001,-0.2678636272,0.6087610305,0.5907355591,1.0329901315,0.8432526239,-0.5409008465,0.9685232025,-0.7180992256,-0.0964089452,-0.351455707,35.4018965654,28.2870497391,1.4208940362,0.5845540041,1.1303319611,-0.5599521883,-0.2398339286,0.3744933215,1.4386000108,0.2106780169,0.4532552697,0.1977409965,6.89575141,-0.3398337717,-0.6933694896,-0.85774066,-0.6117653432,0.0155794819,0.8996022993,0.2355844387,-0.4200582871,39.5572707183,2.0869220246,0.1458729015,0.4499126296,-0.2181925601,-0.6898192147,1.6549701551,0.9291020261,1.2891187889,-0.3993219203,0.3305530519,0.1647453881,-0.4793920787,0.4488306812,-0.2331979046,0.192584047,0.3814130878,-0.524344303,0.472983626,5.5336141297,-0.2809820569,1.1307100728,0.8016067844,0.614117777,-0.2087702162,1.0412920028,2.8773701534,2.3036294583,0.167335545,-0.0108722151,0.1096781505,-0.5059861465,-0.2305876699,0.6961658121,-0.0008806666,-0.4734826519,1.0611803066,0.5087781615,-0.8722519997,-1.1949102506,4.9925244975,1.0094886016,1.8474244792,0.9169415137,0.6358623713,0.9259919482,0.4512666958,0.3453844428,0.2713171684,4.2823704919,3.9134002079,2.9608487815,-0.0753115323,-0.4952403142,-0.6097366267,-0.097171397,-0.0767485722,0.978242384,0.1060119997,0.2983555262,-1.3223804641,0.8734882799,0.232393283,1.358278241,0.2753723474,0.7037922686,0.1432843744,7.5264610983,0.8326006636,1.2914166182,7.6168962595,0.0465266618,-0.0817659702,-0.3681341714,1.0698920845,0.8759343692,-0.5566126478,0.9004063056,0.1926588548,0.2037826843,0.5619694639,1.0930270916,1.2780145396,0.1182141309,0.931490777,-0.4448591554,0.9542933578,0.8846610825,3.0375299695,32.1263513725,1.5014020944,0.9556441151,0.8398736276,-0.5479234462,0.5553910475,-0.604573266,-0.3510190955,-1.0123024413,0.6990150016,0.1656697652,-0.5542616216,0.9389365528,-0.893658297,-0.7344595412,0.9399066168,0.9327423547,0.7345795709,1.2214416315,0.8722096826,1.8652034323,1.742015875,0.12531312,1.1088898812,-0.1992638383,0.1506877868,0.8766402357,-0.5561037299,-0.140238098,0.8588167278,-0.1070931035,-0.2661422123,-0.4337011733,2.1342522608,-0.5363860083,0.9123993296,0.2629627999,-0.4680245308,0.0186998817,0.9765808951,-0.5496939635,0.37291226,1.5363472626,0.1425045185,0.5349826864,0.7558036721,-0.252099522,0.1371814901,0.1636832339,0.6401992107,150.3081759165,53.111706327,1.2285949984,0.3139055871,1.0434020517,0.7635013967,0.6536140568,0.841257119,-0.2006822401,0.3661395901,-0.0266531706,-0.4641291358,0.7705032415,0.4947543167,0.0487448775,-0.5503415385,0.382283431,-0.4264704391,-0.5710444063,0.3296843302,29.6397270646,307.5901448611,0.9810314558,0.674329766,-0.4232882309,-0.0012461451,0.7424840493,-0.7448376468,0.0449946839,0.3480412251,-0.2918051492,0.4538064743,0.3086080659,0.8349186833,0.3024411846,-0.2527173281,-0.6868854101,1.0346124511,0.383408105,60.5120441903,62.7957013891,23.0196426951,-0.2323426484,0.4736519796,0.6675261791,-0.2378066471,-0.9375329912,0.9414815355,-0.5973127366,-0.8911206512,-0.823794889,0.8260428638,-0.333357979,0.7206624456,-0.8560236289,-0.2162224849,0.396036812,0.6547027816,0.9227127789,3.5389441528,52.763543222,63.6858047223,7.5226675672,0.3506487692,-0.6462490046,2.5511434786,-0.3506778105,0.8857990683,-0.9498277632,1.0291698118,0.6310862108,0.9192102717,0.4267081582,0.1774483684,0.086392699,0.7707285037,0.9393716428,-0.8474889414,0.2547144101,7.2400259188,2.2023882076,2.6738497136,57.7870596071,2.8177250596,-0.4892488195,-0.3406113873,1.3757756924,0.8983138028,-0.2134919562,0.2851450237,-0.4401037881,0.3513842195,0.4767472804,0.4407779853,0.2594691556,0.6351845219,0.0988945661,0.9199331432,0.976520141,1.7035490922,1.435851733,10.3152605859,15.9680453584,1.0193134289,0.3912764264,-0.1666092349,0.4016985175,-0.1323166958,0.9379456226,-0.9097721825,0.4383810162,0.2023221691,-0.9719332735,-0.2128231246,-0.2261137014,0.5093300132,-0.5006600491,0.9336308261,-0.0444231472,2.2897813396,1.1554702214,95.7791037172,30.5384457197,9.9544316958,1.541185444,1.4888117118,0.2563587354,0.9736654132,-0.340013931,-0.5949064371,0.7610878502,-0.5147437716,-1.2034727936,-0.9119187395,-0.2245816949,1.0990131446,0.1836030898,0.2058128321,-0.2831037748,0.3719310073,76.4260194741,138.4631478621,11.7656085411,17.9450556124,1.3618792119,0.1721260849,0.2915323643,0.7874381698,0.8110336533,0.2933360347,0.5808930015,0.5206891128,-0.2034311456,0.763274821,0.1941972097,-0.5338038178,-0.084524418,0.5102923476,-0.4229488679,7.105879906,27.4640038479,142.2852646746,36.1396597225,6.7939584896,-0.4058765096,2.0311551611,1.0889823623,-0.8330614236,0.8109414139,-0.2576095217,0.6741863015,0.774216608,-0.4006546121,-0.1484848126,0.6108367872,0.7242067305,0.8868209045,-0.18240354,-0.1756744256,4.4176597351,8.7491856017,7.9932186996,0.7234961559,-0.3555701296,40.3336091035,1.0997019432,0.7923543124,0.2154954034,2.2925071666,0.9003616918,0.9489661863,-0.6427549009,0.8498343579,0.2431425848,-0.2865209576,-0.0448889893,-0.2806549314,0.7854627166,0.730200321,-0.2536299934,0.6447942593,6.6958910344,-1.5097708013,0.0227990888,0.805585865,1.4106247044,1.5208868622,0.6505204101,-0.8002270987,-0.7783823083,-0.312504913,-0.1026749416,0.1741464725,0.0442895285,-0.3191988227,0.4620003753,-0.1230028832,-0.3243197718,-0.3215623871,-0.3034504175,0.1432233603,57.0697237078,8.8908684434,-0.5773183288,11.4155036327,2.8641359788,-0.3422269988,-0.2698750489,-0.8383221009,0.8335369396,-0.6255334218,0.0026050008,1.0091491465,0.3626508665,0.740546979,-0.8402873146,0.5370937566,-0.4863382346,0.4683514461,-0.2378693623,0.301255197,1.4249164556,0.548751501,33.0390301746,-0.7711709171,-0.2613163564,0.3545145654,0.175499608,-0.7009436914,0.6020527888,0.3132025725,-0.8051599786,-0.222507971,0.8516365495,-0.2807878438,-0.5611500856,0.0522132977,-0.6146805271,-0.1124967691,2.3583240108,80.5073710057,2.2136577043,83.4022713289,-0.7479556838,1.5713930186,1.1588280459,0.9385905046,-0.2487371838,0.963332911,0.8999862814,-0.1229056053,-0.4946517793,-0.9585548223,-0.0123431387,0.5339440508,-0.6949717562,0.1898355085,-0.651506554,0.6110655956,0.5793072177,-0.7447445469,-0.0085243489,-0.2388681909,-0.9347805941,0.4798630649,0.1140264919,0.6847193579,-0.0212808486,0.8771866663,-0.1122868222,0.7559614159,-0.5680081411,0.5058705588,-0.0719800089,0.8553852077,-0.2909263483,-0.5663489566,0.6028260783,-0.7727418511,-0.7907707072,-0.5489184238,0.0445861832,0.4015498414,0.3708276274,-0.1139412102,-0.394430998,-0.6298722653,0.3411630932,-0.347378987,0.9297017692,0.8176776292,0.0918990432,-0.0366378375,-0.2914953481,-0.7653010205,-0.4069100838,-0.657787792,0.5649645557,0.9974530254,-0.1774925064,-0.2535215815,0.2163599702,-0.845067595,5.1841920361,0.5235632557,-0.3154171067,0.4276667993,0.7609305127,0.4773113643,1.2845252418,0.963119675,0.854342429,0.2372786486,1.0267433251,0.1196555993,0.1162249208,0.2998887425,-0.5818814307,-0.8409257847,2.3249437915,0.5115430021,-0.0121658817,0.3769595892,0.742309925,-0.6072552585,0.1974504337,0.9517542372,-0.309545789,0.0480545837,1.2584020726,1.3039360017,0.2730064661,-0.1664305825,-0.5684783863,-0.6896295151,0.3974342833,1.0422907232,0.2407507398,0.3364260387,-0.1946892509,-0.1574381923,0.2129148782,0.291088303,-0.0722212552,-0.8475187816,-0.5747589335,-0.4853948578,0.3554955501,0.4548251432,-0.2653439145,0.5711425364,-0.0893343349,0.6347630584,0.4971018999,0.3178947143,1.0047631235,-0.4757986437,0.4462887178,0.1220068175,0.6747888924,0.5819153097,0.0615034476,-0.9835330492,-0.4971221985,-0.8335180271,1.1115858533,-0.6124180308,-0.0586625818,0.0935607038,0.5033819558,-0.3894074036,0.6698046499,0.6814493905,0.6020041856,0.0018806892,-0.6894806863,0.6789351058,-0.5938212382,-0.1439704582,-0.3458311245,0.3656227295,0.9707481005,1.5765304168,0.581668945,1.0039540745,0.1311270711,0.8665876409,0.7220681382,0.2665752204,0.135379223,-0.4367293871,0.851949914,-0.1995105845,-0.0757926832,-0.2447731634,1.0180561046,0.325801797,-0.6988930684,-0.1709073973,1.6278819084,5.4012886497,0.7864322477,0.2788659043,1.446243013,-0.1699953662,-0.2474903371,0.9403182374,0.1570459367,-0.3278391862,0.6594479761,0.9380130896,-0.2904595605,-0.8285476274,0.6158765812,-0.7274478289,-0.057735365,1.0145032897,-0.4011695144,-0.3035279447,-0.1384843571,-0.9801657578,1.3047190643,8.4717045397,0.0155930018,0.25034909,-0.2569506971,1.1345039168,1.393063114,0.1421417028,-0.0346335095,0.7641891247,-0.4990962232,0.3330718648,-0.2175869447,0.8066205325,-0.2404862858,-0.3128226533,0.2418967839,0.776068901,-0.1066487944,-0.2186758359,-0.1570182703,1.2544235522,0.9608538074,0.3038735878,-0.3291877034,0.7065831513,0.8971826362,1.7058809873,1.2643300527,-0.0298722401,-0.7347437596,0.954847559,-0.1652954167,0.1845698721,-0.5005912976,0.0516197151,0.5448798734,0.7536913893,-1.1591413274,0.7159834037,1.9371935287,-0.9100836078,0.3570938139,0.7256433419,0.844360916,-0.3527042877,1.1141577699,1.4414105885,-0.5280667793,0.5738669601,-0.1406449618,-0.4950879504,-0.5870553863,-0.6283503209,0.1375983926,-0.4886199386,0.02672586,-0.4552083175,0.0038154949,0.4659799389,0.4618392243,1.0388166874,-0.7652007347,0.6225375083,-0.6989009224,0.699430674,-0.1091958627,0.0939213569,-0.6950037042,-0.3167881708,1.0453533006,0.4528736688,0.9842936416,-0.6945114496,1.0484695836,0.9071333697,0.8150096441,-0.1861567846,0.5816397344,0.277121867,-0.6632833401,-0.6440269606,-0.8141356707,0.2366269321,0.2802214023,-0.4312548635,0.7512811832,0.6745837214,-0.050697886,-0.070474213,0.4338697944,-0.3440907369,-0.0799441488,-0.1037590509,1.092889765,0.5676391023,-0.559142186,-0.8593697682,-0.205089341,0.2899873851,0.0414815414,0.7674510062,-0.0519760469,2.3112695701,0.4959162406,0.8300008823,-0.8363962069,0.3008514255,0.2491060786,0.0913728972,0.2817796767,-0.1981976951,-0.5762281395,0.9779012444,-0.5192663018,0.1932718558,-0.2016178375,0.4641050988,0.3672174226,-1.0709240188,-0.1492909555,-1.372164017,0.1801259731,-0.6217961257,0.5729890828,-0.4943411529,-0.1979902029,0.3881031204,0.043364758,-0.3196980288,-0.2925496349,0.6048732056,1.623428094,0.4926399872,0.4714404033,-0.2624717048,-0.4899191177,1.0980252776,-0.2699990576,0.0432140154,0.3876512856,0.5220547877,0.6062750026,0.729835227,0.7600332998,0.7898041916,0.7700332117,-0.7631885402,0.0671743472,0.8636483979,0.5817220629,1.0834179024,0.2842957286,0.395823883,-0.7346104126,0.0975463969,0.7224216789,1.1285999212,1.0794204457,0.3061106047,-0.856060423,0.0824447606,-0.1314622515,0.0332731557,0.503970328,0.5544616241,-0.973963553,-0.8322382125,-0.4214135156,-0.0334703666,-0.0302124566,-0.2602301481,0.8509821081,0.415816047,-0.0305015683,-0.0115084894,-0.8629411971,0.761652939,0.4959336931,-0.5897661168,0.4590539249,4.6602852453,0.0646261664,0.8521931328,0.7025408563,0.7206653741,-0.9503225245,-0.2527972127,-0.2307232769,-0.2303165777,-0.5932022379,-0.7464882893,0.9164828083,-0.3458977955,0.4763793534,0.6047102547,0.9238115165,0.4835840754,0.8737090583,3.4849999565,2.806401489,0.0657553416,0.9975466714,-0.4119603151,0.4304038667,-0.4788162867,-0.1458022667,0.0533719808,0.8413291203,-0.3312085664,0.8404226228,0.3002846385,0.5638703451,0.4479610374,0.7433276282,0.3451944619,0.7686191868,-0.4202847594,1.0232921525,1.7633537969,1.7274784106,7.208703335,0.2197612939,-0.7133818291,-0.096815277,1.1381449784,0.4778320619,0.6411271699,0.0393876326,-1.1733527896,0.0710230701,0.2133818463,0.8787918979,-0.5198003163,1.0500807492,-0.5711899951,-0.4541166851,1.0540108399,-0.0691569987,0.6091543341,1.2332621018,1.0788822293,0.617317685,1.9751225554,0.8483580472,-0.6239687259,0.7113073289,-0.4643121797,-0.6864651181,0.4400292266,-0.8429981176,0.6142246016,0.3064511507,-0.3609198869,-0.0301809549,0.7091843786,0.2360248875,0.4641870502,0.7625087156,1.0321945495,1.7824975119,6.7578956996,0.5788288669,-0.3975556687,-0.773562633,0.7211646913,0.5261289506,-0.3929382243,0.2046425611,0.6094597296,-0.2990608252,-0.3500865974,0.8811564941,0.1633758281,-0.7255418643,0.9499907469,0.2611075943,0.2526704022,1.081726398,3.3307051088,1.9146700429,87.9115830626,0.0023228724,-0.1846167215,0.1932208853,0.7254361258,1.0597561837,-0.1572292525,-0.0497850213,-1.0629711569,-0.8028091758,-0.072481255,0.0647535544,0.1451670585,0.5620500783,-0.1745391325,0.4139909921,0.8319528764,0.5292110762,1.2816707674,627.2401732257,89.359892234,1.5125543194,0.3263952877,0.9261316285,0.1290857466,0.8762721704,-0.8023515584,0.2052901558,0.6937108533,-1.019933201,0.438911191,-0.3475678924,0.7564102253,-0.451934542,-0.8198422051,0.300505763,0.2371324835,0.6688203708,2.136142677,82.8042267674,143.8545396556,6.0524057437,0.7461060063,-0.7710170228,0.1940377943,0.2531286153,-0.438974322,0.5178756533,-0.7895530763,-0.5346732012,-0.6612557079,0.1873780095,0.254901705,0.5058330752,0.6477709409,0.6526897553,-0.5332894215,0.3266303654,-0.0206632707,4.561986596,4.2002774295,1.3354930257,-0.2325249468,5.7888320757,0.7165726086,-0.3685257575,-0.7514434627,1.3470472726,0.5420778799,0.5953534078,-1.1652459103,0.4518644337,0.5757104586,-0.5838714412,-0.5383200035,0.9072675978,-0.6640398672,-0.1033371287,-0.0772450893,2.72283426,8.7604997857,0.6007539755,0.1314600645,0.575297109,-0.9225713736,0.0117709981,0.3542516849,-1.0111716961,0.1303357441,-1.0265254793,-0.1628964429,-0.5784578949,-0.382332165,0.9744701237,1.0623571361,-0.8611730671,0.8384322189,1.1374764535,0.7301914951,2.1169449442,11.0175180232,1.8871991763,0.2693832934,0.6013124356,1.0541774755,0.5291158855,0.1372033765,-0.7798504895,0.11663219,-0.0298197707,0.5601131045,-0.3569156419,-0.3584516162,1.1312993396,0.9549925493,0.6362453345,0.645787695,-0.3562664072,0.2367029576,2.288233116,14.3248801929,-0.074826221,2.377644378,0.2884982296,0.7165436104,0.4738098616,-1.0469878026,-1.0208410992,0.1651124199,0.7604705016,-0.9433539269,0.2983332855,-0.4400457936,0.2306366523,0.80135769,-0.4981409961,0.5787295616,-0.2574954272,-0.0528205922,6.4624696901,8.1357744429,30.0110986746,1.1008498718,-0.2105714787,-0.8857879114,-0.1646836907,-0.3773358226,-1.02800224,-0.1932984865,-0.9696818356,-0.2764024767,0.8709087587,0.7690034016,0.938986939,-0.5202877031,1.0393561069,-0.4969029423,0.0165818177,0.8555101155,-0.1618362462,-0.138221103,-0.5555866386,0.7430055154,0.0510406853,-0.8779230277,0.2356412897,0.9769742079,0.4181949368,0.2413839774,0.6176928745,-0.5076429549,-0.6039207831,-0.1879110666,-0.4749647354,-0.1882271075,-0.826155108,-0.0477927852,-0.7822831024,-0.4817357303,0.878406027,-0.2562662081,-0.6655128324,-0.0792320677,0.5374477177,-0.1890103172,-0.3224878784,-0.8525650551,-0.6746177464,0.7327472078,-0.3074895043,-0.455306348,0.7453743237,-0.9861261983,-0.458229057,-0.7128466698,0.8844012903,0.1764992894,-0.8946015988,0.7672567662,0.3095926717,0.3686090372,-0.4072020681,0.2423585077,0.9911466982,-0.3719855616,-0.3704188235,0.5858994127,0.5996124272,-0.391263432,-0.5229653578,0.7162211311,-0.3909357478,-0.3001245544,-0.061754243,-0.7938412873,0.6144051805,-0.0863718187,-0.0589036018,0.0809251229,0.4506136033,-0.3434826849,-0.5116854488,-0.4872745625,-0.8829045459,-0.4442365811,-3.7291630521,0.373419211,-0.8326453718,-0.0599142302,-0.9791266405,0.3283456202,0.5487140471,0.7760748203,0.7451394907,0.4237930732,-0.2018229367,-0.086125226,0.2243243971,-0.319933674,0.961785832,1.1412642725,1.0953212643,-0.7286326328,-0.1395990813,-0.075084663,-1.0889454665,0.4775925219,-1.0466061963,-0.256033987,0.5920158898,0.2146017777,-0.4275101318,-0.0269421045,-0.9425674382,-0.632238108,0.4163185723,0.4751401451,-0.1797056249,0.8073686586,0.9515210184,-0.4266355531,0.6678100815,1.1130428502,-1.2755235177,-0.9863326431,0.1400351914,-0.7670173497,0.3413602795,-0.4172907002,-0.4276600949,0.0043802347,-0.5654446483,0.460449732,0.5419228307,-0.0907052357,0.4254260571,0.3494341849,0.4674736215,-0.0392813381,0.3822778918,0.822660398,0.9903970498,-0.1429776236,0.3862000323,0.5400202776,-1.6554712134,-0.2528517217,-0.8463373142,-0.3421671323,0.260382136,0.6989569158,-0.258753105,-0.7538374623,-0.1419582486,0.2056104453,-0.9284347501,0.208064031,-0.0883310688,-0.6060822206,0.2469686708,-0.3170713098,16.9623197044,0.792329739,0.5827229018,-3.7452733714,-1.1439772125,-1.0892243041,0.6634200682,-0.8850046272,-0.0538884122,-0.2224508689,0.4797016417
